Taxon,0,1,2,3,4,5,6,7,8,9,10,11,12,13,14,15,16,17,18,19,20,21,22,23,24,25,26,27,28,29,30,31,32,33,34,35,36,37,38,39,40,41,42,43,44,45,46,47,48,49,50,51,52,53,54,55,56,57,58,59,60,61,62,63,64,65,66,67,68,69,70,71,72,73,74,75,76,77,78,79,80,81,82,83,84,85,86,87,88,89,90,91,92,93,94,95,96,97,98,99
Abiotrophia_defectiva,0.24454577,-0.024249136,0.15652286,-0.59349155,0.03812261,0.030440465,0.06750492,0.36950165,-0.41077924,0.39812833,0.40127173,0.39125714,0.13650183,0.1640729,-0.7358664,-0.12007792,-0.08661506,-0.20377827,0.5764247,1.2394122,0.45309603,0.1650112,0.26866347,0.06073004,0.065653294,0.5771486,-0.33503512,-0.19056325,-0.08095467,-0.57456887,0.17024973,0.65446764,0.48332858,0.115381196,0.21843064,0.122059464,-0.6748506,0.009345248,0.2616515,0.38582134,-0.47606325,0.7457355,0.071283706,0.2221075,-0.4804659,-0.5528319,0.07850887,-0.48882943,0.7280611,-0.87122,-0.16458324,0.008354634,0.6900983,0.27159184,0.307315,0.65328026,0.45895028,1.1445005,-0.037154168,0.822701,-1.0525867,0.107071504,-0.093415916,0.35883826,-0.23983297,-0.5014495,-0.09835087,-0.9587693,-0.415007,0.32428247,-0.22130938,0.8688239,-0.14906117,-0.6625663,-0.0483149,-0.44899687,0.13922553,-0.3620612,0.6216588,0.648091,0.38741812,0.1336299,-0.6209918,0.1699981,0.20330185,0.07566509,-0.33352178,-0.25167882,0.8307656,0.07522084,-0.30789965,0.06260981,0.3512864,-0.5547415,-0.4598373,-0.34432235,0.06741367,-0.34934288,0.3089844,-0.2780732
Acetanaerobacterium_elongatum,-1.159929,-0.07935487,-0.49647966,-0.3795056,0.066688776,0.19868892,0.84106874,-0.07109204,0.88761574,-0.30858427,-0.04976222,0.67475927,0.3018937,-0.51157856,-0.34060076,0.06628679,-0.4929266,0.56733453,0.17423673,-0.20055227,1.1461159,0.58430356,-0.514737,-1.2735512,-1.0715103,0.36011773,-0.36993897,-0.5052426,0.32849675,-0.99716866,0.3479021,0.4259529,-0.5264149,-0.242001,0.053632736,1.062744,0.13836448,-0.39008793,0.3190629,0.20239323,-0.029495655,0.21113625,0.38156623,0.34906483,-0.16923149,-0.37741554,0.7917848,-0.28559303,-0.107243836,0.908679,-0.003475152,-0.04226643,-0.87933993,-0.30594838,0.95099974,-0.946389,-0.52866626,0.506333,-1.2145729,0.5334284,0.33405113,0.16907045,-0.2689367,0.63480735,0.10713829,0.44459152,-0.8752473,-0.0044072866,0.34639823,-0.58859944,-0.1493487,0.5397179,0.1296219,0.54909587,0.4347176,-0.5507435,-0.7698305,-0.28328654,0.1301847,-0.50528365,0.52988386,-0.6405303,-0.18982665,-0.24823873,-0.0112387845,-0.8132534,-0.22162978,0.22530197,-0.0971808,0.012310639,-0.8995713,0.15922706,-0.59600407,0.28015,0.9729948,0.46759707,-0.7577711,-0.6642527,-0.08997367,0.8372675
Acetitomaculum_ruminis,0.87987167,0.6774881,-0.42984673,1.5948992,0.82904553,-0.6953891,0.51076657,1.2584949,-0.11386977,0.18325135,-0.11998096,-0.35528916,-0.78751636,-0.8504482,0.22119427,0.89399606,0.49499485,0.26483667,-0.18456578,0.58786136,-0.9628225,-0.20165339,0.7408015,-0.1980064,-0.80964214,0.10167295,-1.1082625,-1.0914233,1.191923,0.20882872,0.90817666,-0.33192766,0.36458045,1.2180154,-0.38984287,-1.3473171,0.70628285,1.3846054,-0.5313654,-0.47441822,0.0975551,-0.37803292,-0.25317413,0.37327972,-0.12437213,-0.26780152,0.2765904,-0.65782344,-0.16336179,0.08058265,-0.07830866,1.0073766,0.46200436,0.98862773,0.4058612,0.19349766,0.13633823,-0.23201495,-0.36002782,0.88927555,-0.64967436,1.2376113,-0.11924366,0.53534293,0.6034256,0.245002,-0.41679186,1.1952438,0.6866305,-0.09093501,-0.46911222,-0.82675624,-0.5284693,-0.5812061,0.75450367,0.11119869,-0.7354083,-1.1089835,-0.19417983,-1.1795099,-1.479357,-0.52479005,-0.999428,0.5968454,-0.49529314,1.0621643,0.5236798,0.72207516,0.28851104,0.82385534,-1.2296163,-0.15618002,0.8405499,0.92172384,0.0782541,0.47049972,-1.552088,-0.7221527,-0.6258589,0.60986847
Acetivibrio_cellulolyticus,0.5966673,-0.6518455,-0.120150626,-0.2750199,-0.5238737,-0.5203534,0.65095973,0.37414268,0.62253696,-0.009442925,0.530844,-0.39525172,-0.89467704,0.30618656,-0.40078214,-0.10928049,0.18309872,-0.25627357,0.0092211645,-1.1358678,-0.28930485,1.1986828,0.031741306,-0.68760616,-0.84146255,-0.8158761,0.79756254,-0.24926239,-1.0208268,-0.53120184,0.20604001,-0.055598542,0.2887705,0.34867993,0.59207594,0.08712165,-0.71537983,-0.17622587,0.56480265,-0.42403388,-0.098109856,-0.8691027,-0.27173588,0.052372336,-0.12413068,-0.45715612,0.33412173,0.47078896,-0.24026345,-0.44048244,-0.5364693,-0.36652464,0.51234835,0.30594102,0.4937965,0.28048193,0.22082376,-0.6435961,0.20716897,-1.1071932,0.32257283,0.21671808,-0.18559018,0.44274032,-0.548143,0.18495798,-0.38021058,0.9355893,0.25084278,1.0960184,0.45367366,0.31202102,-0.14066586,-0.35136378,0.14999364,-0.6337935,-0.44374406,0.18909293,0.8339891,-0.25739515,-0.32653588,0.24514076,0.120683074,0.59905326,0.74953365,0.16812435,0.06637821,-0.49523136,-1.0625312,1.049845,-0.023089558,-0.3865077,0.26625478,0.6880661,-0.09064332,0.47852144,-0.9923843,-0.41520137,-0.044831604,0.01392208
Acetivibrio_ethanolgignens,0.29725087,-0.113455705,0.64381915,0.08406721,-0.28961885,0.32027677,-0.76406825,-0.28533944,0.2148508,-0.1759933,0.049260095,-0.08263926,0.014894187,-0.33839202,0.5654581,0.3380781,0.2564244,-0.15532424,-0.22522992,-0.35199413,-0.27618462,0.096655786,-0.34608603,0.67275643,0.6589236,0.14109127,0.44933546,-0.22855648,0.07984045,0.4394365,0.45213193,0.37411368,0.30579552,-0.15415373,0.06934616,-1.2495984,-0.51335025,-0.16571842,-0.6209759,-0.89856577,-0.56236565,0.06417869,-0.05526228,-1.0324602,0.06788564,-0.3766814,0.3012956,-0.37251163,-0.5654308,-0.58634055,-0.5199704,-0.27713013,0.24026506,-0.15156303,-0.13548402,0.16209225,0.116992,-0.54788756,-0.36202186,0.13656582,-0.18906717,-0.063841194,0.046034276,0.07497851,-0.0934007,-0.3047173,-0.77585137,0.53334117,-0.06881421,-0.78718317,-0.42323223,0.12725587,-0.39920056,0.684861,0.04746192,0.2368505,0.015840217,0.38838118,0.7096964,0.01808533,-0.7991226,-0.31664136,-0.96807927,0.5556412,-0.031895995,0.33300883,-0.19861144,-0.35193768,0.444525,-0.122278824,0.15106001,0.3056644,1.4557631,-0.4890107,0.36313492,-0.11953003,0.57478124,-0.35129213,0.49349874,0.098823786
Acidaminococcus_fermentans,-0.35932025,-0.48002985,-0.11595601,0.60766,-0.4567198,-0.14066151,0.06506667,0.020667842,-0.02232576,-0.13459542,0.052270234,-0.14701611,0.25426397,-0.31260192,0.5050059,0.56632066,-0.36630502,0.041701615,0.552597,-0.0074623525,-0.20183778,-0.098137066,-0.38360995,-0.2567974,-0.05565396,-0.22200175,-0.61045736,-0.339396,-0.08339839,0.29912892,-0.21153149,0.007685434,-0.17479709,0.6978773,-0.1567015,-0.37679923,-0.005436212,0.03484966,0.4191845,0.6665824,-0.10513685,0.33069396,0.11830093,-0.25432768,-0.9961076,0.7961656,0.2175652,0.2864034,-0.53138536,0.0012454819,0.11651081,-0.19899887,0.012413496,-0.28497097,-0.1785655,0.65867025,0.19780998,0.15519537,-0.3388037,-0.20566301,-0.2976828,-0.034938857,-0.2656191,0.3995516,0.13016982,0.09382141,0.15228526,-0.3085513,-0.2529396,0.22865073,-0.1421625,0.51674205,-0.075489156,0.33823442,-0.11122969,-0.52449524,-0.0011209846,0.48711348,-0.7829748,-0.29776663,0.34467936,-0.38571548,-0.3088001,-0.17181346,-0.13810879,0.7408329,0.09565794,-0.10094902,-0.18537019,-0.034794405,0.4505588,0.6368126,0.10558063,0.33677745,-0.12514901,0.04102967,-0.04664128,-0.3417756,0.37950265,-0.1601284
Acidaminococcus_intestini,0.0034481585,-0.17757441,0.06202675,0.08983606,-0.07368463,-0.11901304,0.07538856,-0.06507854,-0.07258045,0.43646592,0.03070497,-0.18056244,0.033201814,-0.06315617,0.03369382,-0.24284291,-0.1078512,0.104785174,0.67427564,0.25881666,0.22366025,-0.18514508,-0.09338904,0.34303787,-0.017846324,0.086847916,-0.1234602,-0.051220432,-0.37051022,-0.016314942,-0.18263733,0.14699338,-0.035722382,0.016012002,-0.14210485,0.14965206,0.12828118,0.16285013,-0.29266244,0.30537263,-0.0437663,-0.18374938,-0.10361654,0.03641288,-0.30272046,0.06599652,-0.032859616,0.20823218,-0.28855073,0.16575755,0.008799374,-0.04870707,-0.25878602,0.13045308,0.19560486,-0.0019591232,-0.17582914,0.11556252,0.1400745,0.15250126,-0.08198744,-0.30593926,-0.1739698,0.0019829087,-0.04490161,0.06463872,0.327584,0.07355013,-0.22750077,0.044975795,-0.020488566,0.113506585,0.7701895,-0.15438356,0.37717992,-0.00015294086,-0.01927245,0.05463715,-0.41001067,-0.2780648,0.0865604,-0.2080087,-0.15758604,0.25297794,0.22384325,0.3594495,0.111588836,-0.34749255,0.3800726,0.19681643,-0.3537327,0.43619382,-0.24023947,0.18903816,-0.15300545,-0.032425433,-0.16246581,-0.07701084,0.037265852,-0.0028241277
Actinomyces_graevenitzii,0.121095344,-0.0796362,0.10600169,-0.1326023,-0.22752064,-0.053082522,-0.08684599,0.09259551,-0.22850692,-0.14095622,-0.1385113,-0.059260037,0.2735645,-0.011768959,-0.079104446,0.14265476,0.18447742,-0.22677517,0.2667174,0.41369322,0.2740482,-0.11680921,-0.18111539,0.082469076,0.38218415,-0.04925069,-0.060968906,-0.057447273,0.012577066,0.1049894,-0.29822597,0.24560972,0.24133317,0.06268169,-0.2183699,0.025771946,-0.018792339,-0.21723738,0.017396614,-0.09560848,-0.20012851,0.15607363,-0.023111284,0.2620602,0.14561161,-0.06948461,0.1458561,-0.24895802,0.021986935,-0.21509267,0.1416457,-0.030243225,-0.36996704,0.24854344,-0.034479022,0.04919772,0.09533575,0.0057316944,-0.03501635,0.18426299,-0.34077024,0.12612772,-0.17020938,-0.34077203,0.06862123,-0.1877699,0.026166439,-0.34945026,-0.2085023,-0.14508037,-0.25983477,-0.15877865,-0.23068237,-0.009965941,-0.20142677,-0.26189613,0.37110633,-0.22837822,-0.074573584,0.33398253,0.024887618,0.07913053,0.019672511,0.4875121,-0.14010543,-0.0030198582,-0.36889568,-0.29140252,0.006339431,-0.39355478,-0.3807549,-0.12523066,0.26278195,-0.20244499,-0.025979996,-0.29932576,-0.4560669,-0.14757346,0.20320332,0.07691392
Actinomyces_lingnae,0.28377205,0.35451543,-0.092969224,-0.04592085,0.72087085,0.15825081,0.18598719,0.36416012,-0.20424774,0.066927716,-1.1225076,0.47614247,0.5233737,0.8046057,-0.55027336,0.27716255,0.7786883,-0.24002707,-0.955612,0.8317219,0.6125431,-0.36177212,0.29552594,-0.523216,-0.4716893,-0.67751986,-0.21882862,-0.7819303,-0.9262099,-0.6408861,1.1395139,0.7674022,0.09719202,0.70923024,-0.5622575,0.4162982,0.24947792,-0.28397578,0.18841018,-0.07323755,-0.65060186,-1.0123099,-0.30675352,-0.66258997,0.2806906,0.19890669,0.6241106,-0.4610476,-0.8742498,-0.47994742,-0.26168168,-0.25969622,0.56064725,0.4625286,-0.9098381,-0.7758537,-0.062760144,-0.43257725,0.0098362565,0.03764972,-0.30055308,1.3987708,-0.17516136,-0.68889695,-1.167857,-1.6933525,0.95127535,0.10630937,-1.2493893,0.65708,0.111434124,1.3157079,-0.64695644,-0.060924232,-0.5945722,0.17663112,-0.47877812,0.17769241,-0.21705848,0.9067942,1.075048,-0.112209484,-0.62158436,0.11253767,-0.5549537,1.0841047,-0.5364219,0.36836493,-0.366807,-0.53400475,0.38540643,0.24503466,-0.386203,-0.32722324,-0.5411505,0.0900914,0.004512757,-0.9121189,0.086521775,0.3277924
Actinomyces_massiliensis,0.29996425,0.51301026,0.8092467,-0.123795256,-0.32534552,0.028273478,0.7910583,-0.11369119,0.11636011,-0.36946827,-0.052468553,0.006224311,0.20836823,-0.45050657,-0.3610684,0.060502127,-0.11441086,-0.04282368,0.35929206,0.70489454,0.19276424,-0.5199883,0.060394615,-0.86286426,-0.07715002,0.50400096,0.24874657,-0.39440548,-0.45364296,-0.20049867,0.21785784,-0.07856795,0.61585814,-0.037171595,0.22917268,-0.08615965,0.3421247,0.59545934,0.9577693,-0.12653154,0.010454431,-0.40490037,-0.070437,-0.237961,0.8142481,-0.5922432,-0.45279932,-0.21806121,-0.070482686,0.41040033,0.16014355,-0.4727033,0.01859591,-0.012730034,-0.1033894,0.056707874,0.46291175,-0.16765821,0.51962775,0.022449732,0.5081316,0.4351471,-0.09701145,-0.0020858776,-0.33199322,-0.14385056,0.44923902,-0.4571267,-0.017513057,0.25916645,0.00023937225,0.0041602254,-0.49198997,0.41674536,-0.32869855,-0.28826958,0.03940399,0.18140242,0.30516717,0.4013437,0.40548673,0.0373625,-0.68538094,0.37086582,-0.4129995,0.058377564,-0.01714097,-0.88150775,0.47092962,-0.4676757,0.65110177,-0.14447147,-0.58813757,-0.24323529,0.116557494,0.09992434,-0.7014133,-0.501263,0.45165992,-0.20070285
Actinomyces_naeslundii,-0.18595429,-0.36662686,0.5739024,-0.18234792,-0.7716721,-0.022842422,0.7622256,-0.1145747,-0.015505493,-0.1345295,-0.20735747,-0.16568151,-0.51361454,0.13477822,-0.40270665,-0.44344997,-0.1422792,0.5095446,0.23408964,0.3246745,0.41352564,-0.17678495,0.020991564,-0.054879256,-0.10455034,0.10789064,-0.333409,-0.2741571,-0.13518304,-0.19711547,-0.6236134,-0.6322145,0.54183173,0.42698053,-0.09276913,-0.2119084,0.1653033,-0.18860215,-0.2365571,-0.0052328147,-0.3154983,0.067231886,0.44383064,-0.6034143,-0.37948966,-0.21294713,-0.4265102,0.323879,0.1545461,-0.30578107,-0.020470068,0.05364223,-0.32403952,0.57434076,0.85137707,0.15928464,0.28631252,-0.10479711,0.28855753,0.13440263,0.23598824,0.4368248,0.14489318,-0.67023075,-0.21701449,-0.57188314,-0.10044429,-0.30375475,0.19503665,0.45342228,-0.302157,0.28503865,0.25565615,0.0066557378,0.1593359,0.4343263,-0.009646311,0.15481316,0.16448797,0.58198565,-0.03266725,0.008984059,-0.26618627,-0.32072502,0.26946396,-0.3697828,0.12449617,-0.35058916,-0.014489967,0.19939141,-0.010601242,-0.29398423,-0.04911197,0.1539776,-0.7805097,-0.065694004,-0.3360107,-0.48158646,0.29963216,0.26122236
Actinomyces_odontolyticus,-0.051274046,-0.046939597,0.10976219,0.12849146,-0.21102732,0.10851423,0.16130313,-0.22274154,-0.2139995,-0.25068384,-0.14747089,0.2030095,0.04916144,-0.08860735,-0.07296488,0.15711388,0.059621587,0.087245956,-0.046014547,0.47506207,0.15000027,0.2691193,0.24034548,0.04775852,0.34560764,-0.004870523,-0.25843567,-0.37685224,-0.02647473,0.1998442,-0.40813214,0.086789854,0.19775733,0.18782488,0.21953106,0.30780852,-0.09961322,-0.12302853,-0.1215077,0.099355966,-0.08270343,-0.19412637,0.005777184,-0.034169488,0.20559752,-0.12286968,0.11156288,-0.041815005,0.17621177,-0.13919869,-0.06806327,-0.120056674,0.08087827,0.42693052,0.09291918,0.22259703,0.18391266,0.12354514,-0.04199925,-0.14514016,0.22545418,0.099253945,-0.12250437,-0.6799791,-0.15267381,-0.21048886,-0.013225682,-0.12911513,-0.07407839,0.051126048,-0.02553894,-0.1895113,-0.17831662,0.25551507,0.19088578,-0.29232168,0.22691971,-0.109759234,-0.04499986,-0.0060415864,0.1497669,0.24167183,-0.15697487,0.06901199,0.042643555,-0.06793179,-0.17268312,-0.09681927,-0.16543554,-0.14472036,-0.25618097,-0.1360926,-0.29055765,-0.10547298,-0.30107415,-0.21339688,-0.21561337,-0.059102036,-0.1368914,-0.07569501
Actinomyces_oris,0.4045063,0.04336665,0.084253,-0.18989322,-0.53916633,0.26067424,0.3221954,0.09060642,-0.17336488,-0.5195955,-0.19000626,-0.26991084,0.15132031,0.018709105,-0.22891296,-0.08634689,0.015410177,0.12310337,0.12189122,0.47188812,0.43756193,0.5274959,0.24468681,0.31874734,0.061563652,-0.060361728,-0.02443616,-0.3013669,0.016175732,0.23612952,0.17798482,-0.058977626,-0.07298139,0.45504737,-0.32786575,0.32139397,0.16447984,0.09469211,-0.025131017,0.044977784,-0.3176551,-0.26173097,0.1596443,-0.014856495,-0.0860742,-0.07007432,-0.34623423,-0.14592338,-0.08205709,-0.27699992,-0.30763876,-0.14707583,0.29778084,0.019206293,0.15863651,0.195539,-0.13343525,0.27728394,0.29074702,-0.14590845,0.16000286,0.35025704,-0.9143661,-0.53714514,-0.13423046,-0.16871807,-0.6883796,-0.1521875,-0.15154617,-0.36835492,0.284508,-0.19238818,0.17979553,-0.117979534,0.14584778,-0.31592506,0.3683235,-0.26419392,0.19332893,0.21131305,0.3951385,0.18263254,-0.098046005,0.38854992,0.16294217,-0.25115144,0.022396147,-0.5073139,0.13461742,-0.32052988,-0.04923976,0.10070629,-0.28163847,0.09454778,0.39691648,0.16283123,-0.12955724,0.20908262,0.29906768,-0.02541235
Actinomyces_sp_HMSC035G02,0.1565903,-0.35544682,-0.21524134,0.1765568,-0.3240326,0.24683517,-0.6390613,-0.41826463,0.09112273,-0.45762068,-0.61228037,-0.44101143,-0.03709671,0.21380049,0.64585716,-0.13176797,0.40671447,-0.09890182,-0.10325067,0.37705076,0.31483033,0.089102805,-0.058706313,0.5178799,0.2446095,-0.014428176,-0.35330486,-0.066075504,-0.034113318,0.4809343,-0.32599086,-0.032093856,0.23108979,0.05060982,0.50089514,0.37616134,0.1711804,-0.32847813,0.2487162,-0.5871693,-0.34003958,0.041677102,0.21053728,-0.34822196,-0.06376164,-0.84815043,-0.48722768,-0.17727023,-0.10269657,0.013072118,0.85644597,-0.29600388,0.15243566,0.41319758,-0.21316864,-0.16296749,-0.035673425,0.21134081,0.02320791,0.2554087,-0.20352918,-0.16167066,-0.743463,-0.8641151,0.0041764453,-0.22770064,-0.6331665,-0.0035390034,-0.062314983,-0.45702127,-0.38835698,-0.13774519,-0.036188282,0.76053303,-0.09314093,0.59199923,0.40706098,-0.31548834,0.31487772,-0.23336828,1.2432196,-0.10395676,-0.25359565,0.06663704,0.21085823,-0.5555389,-0.09324763,-0.24871624,0.9990795,0.43768328,0.087239824,0.09264989,-0.3521777,-0.7784871,-0.02742219,-0.40254414,-0.039621636,0.4138394,0.23281427,-0.525008
Actinomyces_sp_HPA0247,0.1889151,0.1394436,-0.24655463,-0.44358656,-0.5404378,-0.30919728,0.97490245,-0.7087289,0.031744003,-0.10883401,-1.1478133,-0.07069912,0.4955004,0.07224864,0.8854317,-0.013118058,0.7048334,0.68022954,-0.09213195,0.16059238,-0.26746523,0.24412619,-0.5677086,0.9568037,-0.11542156,-0.39367902,-0.24584603,0.15779702,-0.31683344,0.9367367,-0.31624794,-0.3743909,0.11337367,-0.8722076,0.28695774,-0.41162574,-0.3383753,-0.47730213,0.53485286,-0.5915596,-0.32624397,0.60119593,-0.035551667,-0.15337196,0.28447974,0.05933523,-0.14892192,-0.8761289,0.7942562,-0.2902172,-0.3467304,1.5099834,0.039048165,-0.43671778,0.2924831,-0.83275676,0.07488114,0.9435772,0.42202199,-0.7783069,-0.71937966,0.7653439,-0.12507227,0.055226773,0.48423448,-0.38411742,-0.44914842,0.18949117,0.71071833,0.06399089,-0.2546638,-0.68598,-1.0272679,-0.15923691,0.46147737,0.44979063,-0.7334957,0.15212475,-0.12894726,0.6387367,0.9155011,0.66686213,-0.38632417,0.85784835,-0.7705436,-0.97540116,-0.6466936,-0.8596839,-0.12334651,-0.1692755,-0.65896577,0.5699069,0.027089119,-0.95501125,0.6655558,0.052737024,0.21948461,-0.44298935,-0.48534304,0.24760446
Actinomyces_sp_ICM47,-0.27379408,0.08006596,-0.33663812,0.12401737,-0.69206804,-0.41742045,0.041835416,0.08282523,0.39606416,-0.2924904,-0.87843966,0.99205095,0.650459,-0.12784679,0.3923754,-0.39847654,-0.17989714,0.02479297,0.22685003,0.13088784,-0.27103752,-0.46024585,0.24649268,0.31316286,0.6976409,-0.45791975,-0.2884304,-0.20856228,-0.7962601,-0.30803755,-0.65979457,0.860044,0.17526546,0.24480204,0.18089755,0.6597702,0.109556645,-0.016617298,0.18696862,0.28535944,-0.14571123,0.70537096,0.65673566,-0.06987056,0.39796442,-0.21408984,0.28673166,-0.08920033,0.49270365,-0.18999018,-0.02945249,0.31031707,0.31071267,-0.22243468,0.5618433,-0.23024763,-0.24973568,-0.117331356,-0.29800993,-0.40878862,-0.16209185,0.33908102,-0.51608723,-0.27049208,-0.016787022,-0.26796472,0.07700773,-0.20158502,-0.40568718,0.046600014,-0.08686109,-0.014566191,-0.4858945,0.18406409,0.0039252564,-0.0028312057,-0.0122208,-0.55057544,0.7297924,0.26797476,-0.17987399,0.51082426,0.4546312,0.59851015,-0.18811443,0.07501307,-0.673962,0.117827654,-0.25694513,-0.35196406,-0.4742666,-0.035053432,0.13319406,-0.3731048,0.38422054,-0.50783783,0.072372824,-0.1340085,0.051353894,-0.12142268
Actinomyces_sp_oral_taxon_181,-0.32311457,-1.0583225,0.022752743,0.10855413,-0.6733593,0.70723337,-0.2174288,0.16406184,-0.859514,-0.29256415,-0.9903878,-0.552881,-0.8184564,-0.34215885,0.016320493,0.44908744,0.802591,0.7177548,0.2615305,1.2027892,0.22243115,0.94703513,-0.5672395,-0.047323227,0.09043981,0.03162211,0.13092567,0.03492041,0.036734417,-0.30831885,0.054683015,0.14078735,0.07138537,-0.35325938,-0.06303053,-0.3545273,-0.43125975,-0.15769055,0.5591209,-1.1371839,-0.36401364,1.1892893,1.1089947,-0.6140958,-0.016137183,-0.8580663,-0.3797075,-0.81668574,0.014976144,-0.07253823,-0.20800447,-0.7532624,0.08409552,0.48233902,-0.12794739,-0.3372554,-0.059789196,0.5339858,-0.9757792,0.05885102,-0.7777512,-0.28076172,-0.2663134,-0.2386077,0.22283578,-0.07865487,-0.24578568,0.27906778,0.0065299273,-0.77517474,-0.7450046,-0.39500874,0.067196935,0.6851595,-0.7178511,0.55858755,0.7995031,0.106589675,0.06350027,0.110090554,1.3329601,0.0053423718,-0.19736417,-0.95821553,-0.08713227,-0.389097,-0.80287397,0.032931164,1.063658,-0.18105346,0.1849538,-0.17050645,-0.19171338,-1.0485847,0.5816069,-1.3496115,-0.20944464,-0.019504532,0.75462186,-0.4416116
Actinomyces_sp_S6_Spd3,0.98963785,-0.37586987,1.1036301,0.848443,-0.43250468,0.6257673,0.31523824,1.2842528,0.3916269,-0.4603693,-0.47617623,-0.18465388,-0.25362122,-0.46802348,0.29224643,0.676242,-0.14882523,0.27671573,0.25525144,0.5264878,0.04856865,-0.305933,-0.17052406,0.40254653,0.0013974085,-0.8218584,-0.35872418,0.04344263,-0.3764817,0.57979727,0.38988918,0.15084061,0.5082354,0.25523376,-0.6691886,0.96965826,0.008773863,0.22652847,0.14166328,-0.4835948,-0.62376845,-0.3863194,-0.6385488,0.8057648,0.7513728,-0.6212005,0.061728984,-0.16123027,-0.14500615,-1.0119885,-0.6923684,0.03988409,-0.14653634,-0.20949712,0.4679078,0.45295253,0.27279708,-0.015826553,-0.22220804,0.5122249,-0.27947786,0.2344323,1.0851634,-1.1386645,0.024250627,-0.4036124,0.18042034,0.27519742,0.90563595,0.29145867,-1.3218744,0.6438119,-0.6657265,-0.9413742,1.167976,0.6576156,0.062961474,-0.32529348,0.47805458,0.03448587,0.6751791,-0.52190274,-0.4631641,-0.6936513,-0.12832706,-0.09128675,-1.2019144,0.7511195,-0.03169058,-0.32344487,0.49142432,0.5645935,0.02902162,-0.7121689,-0.7166634,-0.0066276193,-0.32391843,-0.4184401,0.5857122,-0.552349
Adlercreutzia_equolifaciens,-0.29470828,0.44800043,0.12669419,-0.010720227,-0.3222134,-0.0976144,-0.17730555,-0.015614353,0.17141041,0.3405282,-0.16957185,-0.41544938,-0.320735,0.07651405,-0.35358676,-0.3128279,0.38432276,-0.09689043,-0.10639156,-0.028909802,0.1933563,0.05658289,1.1064112e-06,-0.18107152,-0.023616716,-0.18865201,-0.27247745,-0.14269884,0.20021541,0.26035953,0.11656978,-0.054185137,0.26472676,0.016283609,0.19084273,0.36597508,0.083834544,-0.17257103,-0.35033888,0.08588646,-0.03675901,-0.19532654,-0.07508688,0.17254207,0.18007083,-0.058442943,0.20424145,0.15039659,-0.04837995,0.037089843,0.3118261,-0.050772384,0.03566502,-0.2036618,0.03613875,0.1146483,-0.30289117,0.21496497,-0.044475198,0.12540779,-0.17466688,0.38453227,-0.019352216,-0.31460273,-0.12911434,0.26504198,0.029950885,-0.0041378886,-0.31390148,0.0064559914,0.3433871,-0.057172433,0.30620944,-0.030529767,-0.05429966,-0.16552316,-0.10762409,0.2726063,0.34837592,0.040776037,-0.095687576,-0.16480643,-0.049973298,-0.32995465,0.0108279735,0.15882951,0.11722891,-0.092346765,-0.15515678,-0.26805615,-0.19783695,0.060753703,-0.5195405,0.1120667,0.061434098,-0.42290854,-0.32688105,0.15216604,-0.2525311,0.13402343
Aeriscardovia_aeriphila,-0.25945336,-0.7219239,-0.6354127,0.13013054,0.10694017,0.8338419,0.081940055,0.6620826,-0.61025137,0.48282537,-1.5716103,-0.23770672,0.47910872,0.15191327,-0.8502159,-1.3623424,-0.50510937,-0.16880332,0.21629062,0.4588498,0.2902274,-1.4232888,1.0274104,-0.99773884,-1.2309084,1.522739,0.12518005,0.34857485,-0.46109173,-0.6370964,0.2885644,-0.5691635,-0.9883592,-0.65040225,-1.0159278,1.4906949,-0.08972631,-1.3984675,0.4323421,0.81261694,-0.9354588,0.7281107,0.17535481,-0.3369305,0.6648342,0.25657836,-0.0962078,0.0788033,-0.12699589,0.34081042,0.11616561,0.2072443,-0.27937227,0.07763851,-0.252908,0.9405277,0.1326325,-0.03737068,-0.10674377,-0.28994173,0.96686584,0.6362473,0.09816826,0.37656686,-0.6590653,-0.6032281,-0.36991352,0.53131837,-0.035861015,0.3682842,-1.3950925,-0.7048026,-0.8089681,-1.4496539,1.4871967,-0.29787654,-0.49530417,-0.05157122,-0.3468418,1.4937667,-0.11430046,-0.14826468,0.66732764,-0.36912647,0.96183425,-0.925905,0.4979113,-0.4110659,0.65628755,-0.42973638,0.09242928,0.60163224,0.056679487,0.94072956,0.5317696,-0.906667,1.5752194,0.26561925,0.43930918,-0.9399874
Agathobaculum_butyriciproducens,0.66536945,1.5595977,-1.0069482,-0.3942512,-0.5164691,-0.44949463,0.10777199,-0.16187656,-0.16440701,1.1994884,-0.10697359,-0.2312235,-0.40984574,-0.07225354,-1.6293886,-0.51428306,0.3163438,0.79902565,0.9138518,-0.49367318,0.26386818,0.028955467,0.33032614,0.17458878,1.097038,0.053072922,-1.2225091,0.34221977,-0.2860976,-0.7934204,0.0029856563,-0.023021042,0.62507176,-0.09904051,0.90902853,0.40888494,-0.75909215,1.196223,-0.2432828,-1.2535348,0.587045,-0.5657996,0.47577983,0.620933,0.06105736,-0.5351688,0.41809934,-0.19938809,-0.081451654,0.21894708,-0.5467669,-0.30744523,0.32951173,-0.1947549,-0.7409186,-0.37922525,0.72401845,-0.8376328,-0.45671466,-0.46378905,-0.34078854,0.36081192,0.26555908,0.46434683,0.5107995,-0.18441801,-0.37700748,0.441319,0.8005634,0.3221636,-0.24071872,-0.22897062,-0.8160416,-0.076260656,-0.25069505,0.016829029,-0.20739923,-0.34755075,0.17515638,-0.16935688,-0.7641549,-0.76371926,0.28950667,0.028925896,0.5222154,0.016288385,-0.6589717,-0.34180555,-0.40496317,-0.05807212,-0.93471193,-0.10203987,-0.12546524,0.19364583,0.23199299,-0.006065361,0.9042932,-0.8786911,0.09191412,-0.5978656
Akkermansia_muciniphila,0.0842117,-0.07319965,-0.06381313,-0.06832643,0.05485916,-0.24249281,0.15013637,0.0049859835,0.31821746,-0.036183767,-0.031756274,-0.47318965,0.016905837,-0.2763919,-0.24515149,0.080437735,0.039135896,-0.080517426,0.055165067,0.04117727,0.06903374,0.25629675,-0.053160973,0.14142843,0.0911172,0.12790854,0.21036045,0.10447864,0.16064017,0.12206139,0.06342854,-0.08267774,0.15056133,-0.09695295,0.036424838,0.009771645,-0.1345858,-0.049549684,0.10920508,0.04240972,-0.17298976,-0.29758334,0.040152583,0.014429249,0.06230079,-0.015715457,-0.16936205,0.2306856,-0.0013017356,0.14351305,0.057892874,-0.0663409,0.19835779,0.09676618,0.200526,0.045706533,-0.16409864,0.024203531,-0.115203135,-0.1264883,0.05319241,0.06856459,0.30197033,-0.101831086,-0.13771057,0.02020469,0.065866515,0.102384254,0.11236175,-0.20383848,0.04755577,-0.0060577244,0.11705093,-0.3825096,-0.047558814,-0.20661184,-0.24260381,0.3753574,0.013749823,-0.14748356,-0.071930125,-0.07963535,-0.1905159,0.11260574,-0.14658198,0.17931649,0.15555586,0.20277475,-0.008557111,0.029104881,-0.016105946,-0.022041503,-0.08073284,0.20040685,0.07412286,-0.0017407909,-0.077236176,-0.0048636384,-0.15035617,0.08427899
Alistipes_finegoldii,0.20113641,0.031185873,-0.1463544,0.25351962,-0.0068758028,0.14171048,-0.19240597,0.09385573,0.21624875,0.3731401,-0.081563115,-0.41523147,0.3258438,-0.36499423,-0.59717107,0.23548797,-0.06178824,-0.20906512,0.1688942,-0.4688835,-0.12043592,0.4529035,-0.058906436,-0.077636205,0.25934035,-0.21580446,-0.11202847,0.37133682,0.14458796,0.21886753,0.23746878,-0.1552707,-0.15787363,0.36356455,-0.21211891,0.25690457,-0.010949106,-0.693989,-0.13712236,-0.11846498,0.018742003,-0.22223577,0.082455084,-0.033756383,-0.11212663,0.09733474,-0.01260837,0.16478236,-0.27463776,0.21434149,-0.033863828,-0.15645179,-0.10077585,-0.0952508,0.15479456,-0.1211911,-0.12995008,-0.55564564,-0.2601154,-0.12814316,0.0042482466,-0.14061396,0.45018643,0.2544579,-0.59901184,-0.014105134,0.37777102,-0.039401665,-0.16281343,-0.2815445,0.44866484,-0.06222102,0.7960644,-0.12864587,0.30607754,-0.19688924,-0.1989955,0.21292529,0.24931653,-0.3837703,-0.3977706,-0.1851027,0.27695462,-0.2018382,0.08931175,0.12466576,0.44585735,0.028597958,-0.2232715,0.077960245,0.045156896,0.11851013,-0.0617968,-0.031579766,-0.41642597,0.22451389,-0.29363012,0.22810124,0.094942786,-0.050307803
Alistipes_indistinctus,0.032969482,0.124349035,-0.009891614,0.010217145,0.1332354,0.022940528,0.018122546,-0.188948,0.03844229,0.32953346,0.1300522,-0.33451486,0.08301575,-0.4046595,-0.037841428,-0.054476257,0.07076785,-0.087218285,-0.15844569,0.10875006,-0.09469196,0.15594111,-0.021468133,0.03751706,0.084855944,0.013551302,0.11222462,0.11455508,0.02319194,-0.01908962,0.3114823,-0.10581697,-0.041224826,0.08372235,-0.016922947,-0.021994881,0.023989672,-0.14990042,-0.028199442,0.13621931,-0.040581197,-0.13853987,0.10420275,0.19850567,-0.13459222,0.07656144,-0.17295659,0.3631968,-0.04494638,0.43721315,-0.0106440075,-0.13366109,-0.05432856,0.31129426,0.09086905,0.2680191,-0.10043545,-0.17045218,-0.37860352,0.015871601,0.20099655,0.2351715,0.31779018,0.3567247,-0.013441595,0.12366098,-0.24196428,-0.027982816,0.1549393,-0.05285822,0.27513957,0.15472268,0.20517364,-0.10252935,-0.27574092,-0.05432307,-0.05615579,0.18159303,0.03430268,-0.5198741,-0.24852465,-0.11428126,-0.048894797,0.07992004,0.018030412,0.12428433,0.056800455,0.03516185,-0.10450541,0.29168832,-0.11245738,0.26626372,-0.24564174,0.09972807,-0.03277351,-0.3462913,-0.06374915,-0.09234176,-0.249478,0.05842421
Alistipes_inops,0.5920396,-0.09367134,0.6221317,0.047747135,0.23682508,0.0069411397,-0.17962667,0.24345095,0.047431618,0.5736467,0.20851283,0.01231809,-0.42171502,0.32743412,-0.38370454,0.2309702,-0.1491908,-0.36445177,0.036439106,-0.37664232,0.1493049,-0.6585163,0.08324207,-0.15211706,-0.63439876,-0.12454352,-0.4293178,0.14751303,-0.20235388,-0.19876972,0.59445107,-0.0708777,0.0031000748,-0.40193164,0.27423805,0.25066057,-0.121065296,0.5955564,-0.56108654,0.35378247,-0.3824996,-0.07723585,0.9178623,0.72198373,0.16829214,0.33491606,-0.3058963,0.6542338,-0.16541156,-0.4993459,0.5801326,0.7244824,0.03748749,-0.70172054,-0.029199585,-0.06812659,-0.112899125,-0.28514472,-0.5695374,-0.71316385,0.25104606,-0.21193191,1.1773643,0.7522776,0.012386903,-0.059938077,-0.28597277,0.19981852,-0.46603668,-0.26441133,0.4492545,0.20675972,-0.25463617,0.08963549,-0.09711583,-0.013310365,-0.49896047,-0.4039557,0.25349525,0.07219282,0.03374015,-0.07941777,0.8180336,0.107523516,0.31894246,0.016143367,0.30120814,-0.20400584,-0.3683571,0.04519075,-0.16970427,0.10074209,0.0297345,0.5659641,0.34946907,-0.39213377,-0.5084034,-0.17253503,-0.30963486,-0.32756156
Alistipes_massiliensis,-0.26283422,0.25599712,-0.009195,0.46901911,-0.18186876,-0.10648508,-0.5163509,0.38396877,0.8013566,-0.79722846,-1.0241761,-0.91149557,0.6333412,0.46164137,0.22269721,0.057830848,-0.09644298,-0.28727356,-0.46880186,-0.14839303,1.0160341,-1.322258,-0.8462407,0.39445814,0.37347916,-0.32358387,0.98186076,-0.63636625,-0.5529515,0.30639687,0.5705664,0.6443716,-0.77279437,0.5377197,0.4662675,-0.019499771,0.6518686,0.17633355,-0.08337241,1.1845446,0.51048845,-0.047881767,-0.13845381,-0.20584455,0.45519152,-0.49158254,0.35675454,0.061038435,0.38947958,0.3509328,0.8086248,-1.2884998,0.16142887,-0.16898023,-1.0851912,-0.54330117,-0.17820147,-1.1701305,0.63224334,0.46373302,-0.34780514,0.56571555,-0.38850218,0.3625709,-1.170518,1.1391106,-0.10585284,-0.35656217,-0.41613388,0.30936947,0.4785012,0.27704787,-0.30740544,-0.045850098,-0.4495093,-0.73981214,-0.3092666,-0.55431426,-0.23858097,-0.28508228,-0.86174494,0.47447485,0.5954672,0.25531983,-0.08658655,0.17195325,-0.57648134,0.026577532,-0.84809947,0.75782156,-0.27230915,0.9665979,0.59606636,0.17283526,-0.63236326,0.2443828,-0.24701266,-0.29126376,-0.23375419,0.55841464
Alistipes_onderdonkii,0.083972335,0.20849341,-0.020412527,0.122138955,0.09483218,0.06275876,-0.074029475,0.10776965,0.14199582,0.089034036,-0.065397024,-0.23671448,-0.024273597,-0.40234357,-0.29136878,0.055721484,-0.21275112,-0.015255919,-0.038763393,-0.09348562,0.3498934,0.20524198,-0.22679892,0.110072374,0.2987134,0.06825827,0.06945902,0.14910145,0.12091381,0.0036162473,0.32596356,0.15969875,-0.12795974,-0.060739063,0.14930634,0.25291672,0.10664111,-0.121527776,0.09302744,0.09553613,-0.2246494,-0.07100288,0.16153851,-0.17359763,-0.20932667,0.020234533,0.17111354,0.13418278,0.060021326,0.19931191,0.10724725,0.10898401,0.0316282,-0.031001436,-0.038074158,0.10777439,0.08592844,0.082009465,-0.038024187,0.11794202,-0.21454957,-0.08128537,0.3208347,0.15652008,-0.019321047,0.097007334,-0.07871255,0.0034556799,-0.16636032,-0.23598109,0.46510047,0.44121337,0.0041465983,-0.15178503,0.050610855,0.118463844,-0.21641451,0.12465963,0.16277955,-0.30758643,-0.04324755,-0.07822749,-0.2632869,0.017549094,0.1848191,0.16331199,-0.055110678,-0.14337507,-0.34253144,-0.0061644716,0.04431627,0.041937508,0.08148678,-0.074796274,0.0042060837,-0.09003361,-0.05966327,-0.23802043,-0.101940334,0.10566747
Alistipes_putredinis,0.121008694,0.08036707,0.019848026,0.050496683,0.13955033,-0.32309282,-0.27726835,-0.007184889,0.39107078,0.5660132,-0.32664484,-0.1488928,-0.23090535,-0.017301708,0.08502697,-0.14629343,-0.37636548,-0.22923927,-0.52220196,-0.37570614,-0.12024243,-0.21350239,0.31136018,-0.14104939,0.20557472,-0.32825693,-0.27677137,0.40408832,0.3118145,0.6403435,0.08875121,-0.19516799,-0.06638756,-0.13403466,0.11302476,-0.01778382,-0.037041344,-0.19763619,-0.45840284,0.32977113,-0.098745294,-0.4555802,0.06521968,0.09255866,-0.4398509,0.16387978,0.27278632,0.405631,-0.2223509,0.25796235,0.08908455,-0.15780157,-0.19871835,0.044397343,0.2053657,0.09368054,-0.24120113,0.018415809,-0.27313554,0.26413774,-0.31054312,0.15536116,0.20609128,0.16701162,-0.2914534,0.43188566,0.027083635,0.29569432,-0.17836502,-0.27486145,0.17700082,0.53248733,0.18964767,-0.34305856,-0.38707674,-0.26406887,-0.570816,-0.0047363862,-0.18397291,-0.5733944,-0.43466917,-0.043265805,0.088654324,0.045484826,0.45637897,0.27462366,0.18021917,0.21075737,-0.103165686,0.035279356,-0.06457174,0.22212057,-0.21232161,0.16907027,0.058113277,-0.15266547,-0.41067672,0.13295586,-0.275417,0.0652517
Alistipes_senegalensis,0.63572955,-0.25835443,-0.7312362,-0.03660485,0.7009573,-0.21129423,-0.26188165,-0.5047851,0.05001378,0.1612046,-0.0700624,0.3137672,-0.13786697,-0.5185234,0.13157143,0.8139682,-0.4047892,-0.45670944,-0.4585994,-0.19449002,0.29039937,1.095902,-0.65818846,0.6480777,0.4831926,-0.27264085,0.017645895,0.21349415,0.72237444,-0.82142127,-0.076906204,0.66607827,-0.19974728,-0.16994926,0.18196467,0.23313221,0.0064500496,-0.363847,0.49082923,0.6312135,0.14148027,-0.12792878,-0.3420018,0.15981402,0.33895123,0.2368559,0.53645784,-0.22630477,-1.083607,0.33093327,0.3936863,0.39032942,0.9164771,0.18760699,0.12131719,-0.37654662,-0.23492268,0.0037468746,-0.3066002,-0.33897138,0.07887205,-0.37284836,-0.16370264,0.93593514,0.29358125,-0.37351596,0.43100882,-0.42245805,-0.3082132,0.770783,0.5969963,0.8036635,-0.9800898,0.15404177,-1.0567706,-0.26020667,0.68820643,0.085873745,0.09186271,-0.05589883,-0.15296434,0.08380315,0.9774643,-0.49065757,-0.5381047,-0.30670914,0.2886458,0.51010656,-0.42545295,0.17026715,-0.7835204,0.7009086,0.8053426,0.42771208,0.19435717,-0.42796278,-0.44234028,-0.35474083,-1.0500034,-0.77829504
Alistipes_shahii,0.3092883,-0.15895252,-0.069512285,-0.2085162,0.2906505,0.21445923,-0.18561906,-0.075004205,0.039110057,0.21701248,0.20857485,-0.2703449,-0.3933657,-0.47019404,-0.592219,0.11351229,-0.0534437,-0.3665569,0.19636704,-0.4274881,-0.34776902,-0.02390275,-0.033880323,-0.15541954,-0.0052520745,-0.1434946,-0.05089944,0.161091,0.2063458,0.29758477,0.113628395,-0.023129001,0.16740094,0.24589127,-0.13824499,0.28569546,0.19980122,-0.5140503,-0.25388354,0.30579042,0.11117086,-0.37741077,0.47720823,-0.194042,-0.37081468,-0.003074348,0.07933299,0.28916705,0.09733026,0.21174236,0.14865458,-0.037034787,0.09764219,0.13314945,-0.17354448,-0.23448946,-0.1447558,-0.09439632,-0.13380839,-0.25118715,0.29412785,0.051036596,0.6317083,0.11236985,-0.174966,0.011910647,-0.15187828,-0.0570333,0.09907307,-0.18907708,0.32844818,0.13813479,0.24058352,0.061625466,-0.12741643,-0.124347106,-0.23421325,0.21446748,-0.23293132,-0.4474721,-0.12555489,0.070747696,-0.018981664,-0.1908663,0.10227346,-0.1717399,0.16004334,0.04830824,0.030728392,0.029333413,-0.0693183,0.6721252,-0.3009926,0.12900433,0.021045033,-0.014022216,-0.008023024,0.017290503,-0.2807107,0.03046574
Alkaliphilus_crotonatoxidans,0.99019235,0.19134189,0.82401145,-0.08511419,-0.08663356,0.090816215,0.2814776,-0.10459507,-0.09204909,0.4079597,0.015179098,0.860801,-0.29039425,0.13051382,-0.38821793,-0.29660016,-0.2048252,1.3149719,-0.2850433,-0.43852818,0.5332198,0.43120977,-0.3733489,-0.99877596,-0.72851217,-0.37227055,0.45998546,-0.22345209,-0.183303,-0.8903197,0.77719325,-0.90905416,0.20101924,-0.4083788,-0.45005983,-0.4934334,-0.0897958,-0.5948864,0.588248,-0.07042962,0.22226423,0.14704564,-0.50290936,-0.23337772,0.09898347,-0.2461509,0.13951366,0.656618,-1.0379251,0.6312237,0.13346323,0.7481013,0.18690681,-0.6981317,0.48199436,-0.08924617,-0.078107,-0.2607788,0.2451262,0.5292406,0.36128256,0.63013834,1.3904245,-0.3755896,0.4113754,0.16263035,0.13675089,-0.83372635,0.71562696,-0.33682865,-1.4150679,0.7293628,0.20405573,0.53625464,0.5946498,0.52910775,-0.34705502,0.6541496,0.34764028,-0.62323695,-0.16406375,0.07266893,-0.45138693,0.73381186,-0.2971258,-0.13376987,-0.072513916,-0.23246163,0.1256554,0.5635944,-0.3880446,-0.15194607,0.82917106,-0.38366872,-0.9773588,0.8526944,0.13145246,0.4962582,-0.20781259,-0.84798205
Allisonella_histaminiformans,-0.13173205,0.100720376,-0.2762063,-0.17814605,-0.14594823,-0.022923764,0.029407501,-0.012217015,-0.06284896,0.28868723,0.41106766,0.35764885,0.13809596,-0.035508685,0.067238085,-0.020421294,-0.036149587,0.026954506,0.15938947,0.19945829,-0.0865444,0.012208462,-0.06858768,0.017410949,-0.16422659,0.023597807,-0.023153134,-0.054906696,-0.47141552,-0.20072693,-0.020421507,0.30307057,0.072073326,0.25338975,0.13583863,-0.25440952,0.04897688,0.051469438,-0.22087912,-0.024176992,-0.2051878,-0.1293784,-0.01586812,0.21284328,-0.20741773,0.19505388,-0.011219223,0.2149764,-0.28519624,0.19553532,0.035463933,-0.18143693,0.14615244,0.18610695,-0.09500725,-0.13209896,-0.16230027,0.19663537,-0.20422286,0.09216724,-0.0029574633,-0.06274245,-0.3272109,-0.3342134,0.31750825,-0.123727575,0.21067727,0.26900476,-0.03824885,0.17540143,-0.036074042,-0.06621737,0.2486363,0.22690251,-0.050105833,-0.11331559,0.030722573,-0.06863031,-0.5462287,-0.47760314,0.2360412,-0.16063523,-0.06692948,-0.12120623,-0.12481912,0.075157024,-0.13027252,-0.32809672,0.35249168,0.16081837,-0.54743004,0.38143504,0.0067893676,-0.367604,-0.088318475,-0.11921291,-0.18529885,-0.061628584,0.18253157,0.02083781
Alloprevotella_rava,0.5714299,0.074085966,-0.026209716,-0.44436973,0.4105987,-0.45609042,0.84114605,-1.2274114,-0.28652927,-0.3040922,0.21719763,0.9389683,0.37524492,-0.40008125,0.1911777,-0.9710105,-0.93121326,-0.45833498,0.62074643,0.29395068,-1.0895032,1.1049242,0.24527794,-0.8583544,0.25412822,0.7881605,0.6237018,0.25138658,-0.7146128,0.3481173,1.1023332,-0.121409886,-0.92137206,-0.68666375,0.37381834,-2.176592,-0.19369105,0.29763556,0.59176075,-0.027278423,-0.59352297,0.6638119,0.3191447,0.6564355,1.9667958,-1.0009023,1.4030235,1.1737864,0.5066384,-0.14986145,0.5781432,0.7331257,-0.6634513,0.4192839,-0.40414175,-0.55284107,-0.20567133,0.100330666,-0.08084741,0.2603549,-0.4777636,0.16186714,-0.13657466,-0.75631607,-1.0248798,-1.077059,-0.8107356,2.0729935,-0.292767,0.24662298,-0.09935199,0.2115032,-1.4185624,-0.41443205,0.1882985,0.6657083,0.95589185,0.64278454,-1.0813844,0.011026026,0.44946396,0.6206784,-0.18165278,0.13089332,-0.17526081,-0.19740233,-0.3248953,0.5561206,-0.23666689,-0.2759977,-0.39288306,0.7654321,0.43983144,-0.5515651,0.40205002,0.22604942,-0.035962425,0.56005424,1.8744268,-0.51315796
Alloscardovia_omnicolens,-0.1026233,-0.17146091,-0.13975947,-0.4476767,-0.21442738,-0.027327359,0.11127631,-0.110839546,-0.43268925,-0.18458293,0.17006098,-0.2982992,0.11748719,-0.08346149,-0.1183307,0.18044725,-0.055464074,-0.19620302,0.14524959,-0.21414694,0.19939366,0.17547837,-0.29366058,0.1400981,0.17469908,-0.06988707,-0.32441646,-0.23982069,0.0715699,-0.038214475,-0.31536037,-0.43815,0.47183454,-0.054718927,0.07363564,0.22821416,-0.30943722,-0.17260411,-0.19105184,0.06879336,0.22225428,0.044007264,0.12771197,0.05694917,-0.047428627,0.095977075,-0.16790605,0.064716905,0.19705078,-0.4574698,0.14023316,-0.09934386,0.013508886,0.35527024,-0.09692295,0.1433757,-0.006731391,0.095874004,-0.12816247,-0.08513674,-0.09117111,0.26330924,-0.25680894,-0.3386265,0.053443383,-0.2093501,0.1377876,0.109835334,-0.07287231,0.09866235,0.049000233,0.011064084,-0.18909729,0.3422203,-0.18749526,-0.0013749506,0.08961232,-0.17875738,-0.13039717,-0.30044895,-0.04460337,0.1508974,0.04016188,0.19493742,-0.07706899,-0.33493328,0.03602546,-0.01148133,-0.07506151,-0.6116406,0.24208051,0.08183353,0.056284122,-0.38996634,-0.38026673,-0.2955013,-0.2223125,0.35484448,0.0865435,0.009597592
Anaerobiospirillum_thomasii,0.7106843,-0.76253706,0.07463033,1.4428514,-0.28191435,-0.25641724,0.5641876,0.39864922,0.63874274,-1.2585785,-0.014756262,1.5770264,0.45486933,0.15889013,1.0423161,-0.61248577,0.063141875,-0.30024263,0.70490795,-0.123793215,-0.02621311,-0.39395702,-0.76179564,-0.9512054,-1.9190817,-0.9280642,-0.51456755,-0.25275153,-0.4159854,-0.3403328,0.17879096,-0.30144328,-0.21007387,0.72503287,-0.9754758,-0.5480422,0.08584964,-0.39256743,-0.5007805,-0.8066962,0.7737691,-0.13979298,-0.5966259,-0.84561604,0.4585662,-0.4553047,0.18123692,-0.18629384,0.21732329,-0.55581594,-0.57111,0.006687969,0.27814877,-0.7312091,-0.42988843,-0.7084424,0.45587796,-0.02785065,-0.4781881,-0.5538291,-0.14679715,-0.38023978,-0.14843842,1.2454993,0.75146717,-1.1708497,-0.7493523,0.90554035,-0.3284382,1.497915,-0.58603835,-0.6487003,0.31120646,0.26770675,-0.12829977,-0.62970746,-0.60277873,1.5390681,0.48542553,-0.33529973,-0.10995277,-0.23663087,-0.39762178,0.7951085,-0.87504673,-0.54074365,-0.273602,-0.16907951,0.2820927,0.6910486,0.3641017,-0.5103208,0.3298428,0.6966743,-0.9806718,-0.195883,0.9503857,0.07806166,0.7053995,-0.981312
Anaerococcus_vaginalis,-0.115455694,0.18594053,-0.07759108,-0.30513778,0.05953765,-0.11864482,0.42687792,-0.09464177,-0.09589313,-0.38738722,-0.39236295,-0.14597581,0.23371628,0.16536084,-0.07651564,0.09524671,0.3577093,-0.14566956,0.6412466,0.23352545,0.50127155,0.080168575,-0.0029187948,0.35054246,-0.00643488,0.113710545,-0.01982487,-0.582386,0.14914916,-0.07478356,0.1139774,-0.0030497499,0.45179826,-0.19720714,0.17964365,-0.046791393,0.054641772,-0.21407615,-0.38263386,-0.15385935,0.7415367,-0.45610866,0.09266731,0.104510315,-0.73140335,-0.088395916,-0.03716541,0.24927355,0.11144621,0.4021858,-0.18325861,-0.3059144,-0.18707809,0.1657815,-0.1269339,0.118873626,0.08532673,0.117790826,0.0005784333,0.12523358,0.19154502,-0.25119853,0.22676992,-0.019560762,0.10377627,-0.3459062,0.3732192,-0.12737456,0.15424158,0.44229233,0.29465747,-0.049699374,-0.32373396,-0.22383384,-0.13703047,0.22062431,0.04786388,-0.12026583,0.15197065,0.015386865,-0.35871747,-0.008688495,0.066601925,-0.11612946,0.14217786,0.030974537,0.51840985,0.03531661,0.13071744,0.19300959,0.15228856,-0.8431108,-0.4263659,0.067261085,0.3620805,-0.16794606,-0.26586515,-0.1541041,-0.016673367,-0.3334053
Anaerofilum_pentosovorans,0.44270712,0.17789607,0.8266369,0.67741823,-1.3076761,-0.074658886,0.25219038,0.7894848,-0.3813126,0.068182364,0.7199135,-0.029448226,-0.4654841,-0.14350502,-0.18203318,0.9486681,1.0905751,-0.75869006,-1.09498,-0.14136362,0.47778076,0.6964991,-0.57756335,-0.32981607,0.14534916,0.2883362,1.1677759,-0.112453945,1.2000229,-0.4394569,-0.5722674,-0.658027,1.0774655,-0.24617639,0.08266319,-1.4144614,0.15368934,-0.15199533,-0.6939231,-0.07487604,-0.36619663,-0.31821495,0.28201583,0.5562999,0.1436673,-0.65023273,-0.7731241,-0.56747276,-0.2573387,0.3903775,-0.37225565,0.8528893,-1.4420636,-0.498043,-0.31613645,0.23265214,-0.22767158,0.11809485,0.37527546,-0.058666687,0.63602746,0.049798146,0.56472474,0.899787,0.3950681,0.12215425,0.3586974,0.32612953,0.15414283,0.019064777,0.41480842,0.7172935,0.2912885,0.03203645,-0.3720682,0.27611783,-0.24404176,-0.9455739,0.6146709,-0.38426378,-1.3095958,-0.23054485,0.8984372,-0.5143856,-0.27271685,-0.8881705,0.4949677,-0.49611604,0.328617,0.82922715,0.67551816,0.10624315,0.4760059,0.52793056,0.59013104,-0.56447256,-1.0999424,-0.29076755,0.09561484,-0.49141464
Anaerofustis_stercorihominis,-0.3456614,0.108142905,-0.056011364,-0.0024293512,-0.05881214,0.16096507,-0.09169759,-0.44432253,-0.36931714,0.09978127,-0.3924489,-0.4499447,0.33084083,-0.39786083,-0.19110149,0.44522712,0.1920507,-0.08842547,0.1566938,-0.15247555,0.1117045,0.49352878,0.30047032,-0.06096651,0.043953553,-0.09393263,-0.14801651,-0.012797542,0.24139452,-0.16558178,0.09040624,-0.041096583,0.11021971,-0.16737735,0.3413087,0.17855258,0.46496463,-0.06568691,-0.26699495,0.12778161,-0.063137144,-0.07719692,0.047670785,-0.282928,0.045277074,0.11541592,-0.1261965,-0.06293352,0.19662747,0.27998108,0.20191167,0.19194658,-0.10898779,-0.07706292,0.62511396,0.18565243,-0.059593692,-0.16992915,0.06811935,0.58514804,-0.079199284,0.027453873,-0.14802589,0.23311625,-0.49422306,0.042426452,0.24399005,0.17284259,0.18813711,0.18570872,0.1272922,0.30122662,0.070260584,-0.3903553,0.053218685,-0.30694604,-0.0063749924,0.18236598,0.74868906,-0.031425335,-0.053810127,0.06484688,-0.1364426,0.121987455,-0.39008006,0.039451115,0.1608341,0.22949776,-0.12378893,-0.17833333,-0.5833322,-0.5285902,-0.3866906,0.29763663,0.032069035,-0.29756483,-0.40432033,0.039236188,-0.12246145,0.31203043
Anaeromassilibacillus_sp_An250,-0.41324317,-0.18581319,0.055225305,-0.09258643,0.20955923,-0.022822633,0.7741324,0.26010358,0.5763117,0.55965906,0.7638804,-0.7581741,-0.3863033,0.15618551,-0.14133102,-0.035857998,-0.26980153,0.22410625,-0.2550905,0.2683825,0.33079958,0.6207044,0.21556231,-0.61120266,0.55426013,0.22332308,-0.086833626,-0.2280982,-0.18143807,0.30165553,-0.41538295,0.5143473,-0.69841653,-0.53773135,0.23055348,-0.12600651,0.2687214,-0.13189827,0.16528462,0.1498265,0.043588407,0.3191954,0.04784499,0.25358576,0.086867616,-0.15906578,-0.077223435,0.62345624,0.1586863,0.118151136,-0.1296609,0.22431767,-0.12620737,-0.33836055,-0.4605637,0.46009713,0.12701252,0.32836765,-0.09534923,-0.059478343,0.22825748,-0.15941122,-0.24652393,-0.6242698,-0.6472359,0.59807634,0.26180825,0.072687134,-0.41412508,-0.2713365,-0.05876462,0.14945611,0.18695132,0.29130438,0.38104925,0.106866986,0.06216277,1.0590024,0.47609732,-0.299392,-0.3288918,0.20622121,-0.33745205,0.20444486,0.31167662,-0.08552043,0.09853968,-0.100663245,-0.0630632,-0.14083102,0.31283823,-0.1999614,0.21367833,0.3853835,-0.055251896,0.15816934,-0.69800955,-0.20312999,-0.16041315,-0.32297784
Anaerorhabdus_furcosa,0.10128932,-0.005469188,0.40671664,0.32694882,-0.31779993,-0.2223098,0.7006906,0.42287305,0.5815081,-0.57453144,0.5379709,0.5095272,0.2289724,0.13636732,0.7938134,0.7274789,-0.6993649,-0.25937876,0.44444802,-0.7773658,-0.30352527,0.106156036,0.26211596,0.214613,0.036751002,-0.050621852,0.35286114,0.15329318,1.0083466,0.7052506,1.0211835,0.23984575,-0.4028014,0.42650092,0.5374861,-0.5048445,0.14296257,-0.5579768,0.70879316,-0.39621714,-0.32120147,0.40427125,-0.19465059,-0.13481545,0.3625582,-0.35904032,-0.09313441,-0.477108,0.9141322,-0.03836082,-0.7424687,-0.39212796,-0.9565433,0.1689557,-0.5630553,-0.46724188,-0.37103772,0.70541275,0.86300075,-0.7254249,-0.5078062,-0.9261769,0.48805377,0.8079089,-0.12308869,-1.0143895,-0.5170355,0.80319035,-0.04888019,0.14516923,0.5045551,0.114893146,-0.13219848,0.35080707,-0.06896022,0.57569206,0.74627763,0.8345125,0.61013186,0.01639241,0.07760525,0.43458033,-1.0423286,0.5051411,-0.045518868,-0.48655826,-0.2928311,-0.13604128,0.06094244,0.64076674,-0.04863581,0.014557987,-0.08341168,-0.06119656,-0.47342938,-0.58865327,-0.50796103,-0.51155204,-0.93994975,-0.4699171
Anaerosporobacter_mobilis,0.95398504,-0.26842418,0.32483965,-0.22929515,-0.5852748,0.5387792,0.63147175,0.0037094653,0.6621604,0.35374027,0.57868534,-0.036192458,-0.3006541,0.1980967,-0.2692883,0.30794552,0.082608424,-0.5760614,0.047623694,0.42375138,-0.12978785,0.4123435,0.39545363,-0.70979977,-0.2314697,0.2843048,0.6464745,0.03295757,0.3434467,0.08187737,0.04572629,-1.0467085,0.39986336,-0.040498547,-0.55305004,-0.092091,-0.16201939,-0.16090086,-0.637965,0.60411984,-0.26193836,1.2300154,0.29694545,-0.103767425,-0.5575751,0.07523074,0.4863461,0.2223421,-1.0032032,0.0180102,0.39527297,0.024428107,0.72241026,-0.4840291,0.25861132,0.4471654,0.35838914,-0.15017755,0.5521453,0.058882385,-0.027977407,0.22538483,0.087078005,0.26918387,-0.25497264,0.770776,-0.36830693,1.0017662,-0.09339349,-0.881168,0.78246194,-0.5442499,-0.2807495,-0.2694144,0.19675143,-0.14026469,0.120546535,0.20583493,0.68987656,0.13967843,-0.45075125,-0.17728668,-0.15003875,-0.30301023,-0.94592214,-0.21089152,0.6733374,-0.25004932,-0.73024035,0.38442063,-0.02779758,-0.12996264,-0.023070067,-0.6354463,1.0036706,0.7492777,-0.20567659,0.82988673,0.9420006,-0.6535078
Anaerostipes_butyraticus,-0.55805403,0.5605962,0.13038957,-1.2009673,0.72894716,0.23239037,-1.78914,0.57317674,-0.19431202,-0.2586741,-0.74622935,0.75624555,0.06709176,-0.6288873,0.07807481,-0.12709123,0.19248292,0.893782,-0.18873967,0.8599403,0.5948905,0.38797334,0.11120431,0.29091066,-1.6060613,0.5378065,0.4915312,-0.12463626,1.499263,1.2628626,-0.27704328,0.22037974,-0.098204255,-0.9652997,0.41023272,0.24355313,0.5762582,-0.9872298,0.19979459,-1.5421945,-0.19852237,0.45954633,-0.054034054,0.13975486,0.39813763,-0.08648193,-0.4284481,-0.60537064,-0.9031737,0.38573486,-0.17141442,-0.028023362,0.2035058,0.30661994,0.71784085,0.26050708,-0.2808168,-0.22819342,0.7616242,-1.0321119,-0.92274344,-0.7677231,0.6222129,0.20080881,-0.22456765,0.7678442,0.37559256,0.6744509,0.22945169,0.41959065,0.35607305,-0.6608802,-0.2529206,-0.7701071,1.1251726,0.30252323,-0.15007801,-0.44905585,0.4066468,0.28171626,0.42322892,0.22287668,0.9249311,-0.41455954,-0.5423893,0.075455934,0.28184637,-0.24733731,0.68695587,1.0157079,0.24162555,-1.0599577,0.26635373,-1.2207241,0.3357306,-0.63901997,-0.016254246,-0.6752613,-0.36889502,0.09112747
Anaerostipes_caccae,0.2427055,-0.22870249,0.559828,0.29249358,-0.49206367,-0.09903903,0.19932725,-0.27897626,0.01277674,-0.012428997,-0.39033175,-0.5173481,-0.20265874,-0.22896446,-0.11164359,0.40951562,0.11540059,-0.048525017,0.22633906,-0.32851624,0.2537784,0.2612041,-0.015146732,0.6097019,0.34362236,0.7084539,-0.09823659,0.583945,0.04941125,-0.8429737,-0.16696595,0.28015938,-0.4041423,0.4492031,-0.018047199,-0.7612334,0.35880488,0.13909407,0.14000034,-0.43737435,0.05353594,0.12591417,-0.21354422,0.1411416,0.41491997,0.18048324,0.01630444,-0.060237028,-0.35287532,0.060970858,-0.0679211,0.12424444,-0.11303574,0.16156524,-0.14362612,0.23353487,0.5462287,0.033587687,0.5911939,0.21424045,-0.799718,-0.24780603,-1.0170058,-0.21084765,-0.61270344,0.25350678,0.18722811,-0.4016956,0.26681727,0.12133503,0.04204948,0.31595516,0.38516673,-0.06909467,-0.078196555,-0.04601179,-0.0027996786,-0.1712402,0.22974668,0.096685916,0.2760986,-0.31462735,-0.3253377,-0.35582006,-0.07439562,0.14359197,0.30440482,0.14902776,-0.45642662,-0.12521833,-0.049846064,-0.33488795,-0.14284347,0.2559302,0.62054664,-0.4328244,-0.54254246,0.28829458,0.39082283,0.24431068
Anaerostipes_hadrus,0.014149778,0.1371429,0.08408373,-0.3996229,-0.20662637,-0.020391598,0.57441795,-0.23511797,0.010307111,-0.26295072,0.400758,0.32804307,0.3477315,-0.058226515,0.2895681,-0.2191363,0.14771049,0.04327839,-0.009182818,-0.0016942024,0.3503874,0.03700901,0.18606065,-0.2753731,0.39142388,-0.13641126,0.24078599,0.11437286,0.24811202,-0.57880664,0.10514152,0.3692631,-0.063118726,-0.57346654,-0.26772887,0.6063991,-0.68487525,0.037038654,0.08022581,-0.54525137,-0.25481808,-0.14487298,0.17239445,-0.16249166,0.39814687,-0.5225,-0.7284265,-0.66951203,-0.19380102,0.7218842,-0.41542387,-0.53006816,0.4802208,0.1471659,-0.19296667,0.28357407,0.16790187,-0.17125934,0.44839448,-0.11948636,0.08204663,0.17118461,0.3689036,-0.2822749,0.5371176,-0.3495398,-0.5067389,-0.08860806,-0.40741596,0.022250026,-0.18217105,-0.346897,0.22491877,-0.35981494,0.13826266,0.5546976,-0.046051282,0.1571347,0.017067164,0.410654,-0.100351125,0.03221613,-0.31323734,-0.23817983,0.039942957,0.2850637,0.085404426,0.25347516,0.23138966,0.07334156,-0.90197426,-0.15553112,0.41840816,0.5392478,0.17166883,-0.07813347,0.36476904,-0.47723478,-0.34038723,0.6132526
Anaerotruncus_colihominis,0.15456425,-0.24861099,0.25266665,-0.11739236,-0.046045404,-0.036521323,-0.14477195,-0.25493294,0.0032967199,-0.048561737,0.043415926,-0.59675133,0.13723572,-0.33831427,0.08041221,0.06987118,-0.40786076,-0.26214442,-0.19071186,-0.05033793,0.11790669,0.17531067,-0.027146095,0.36842322,-0.055578236,0.051440384,-0.00015513413,0.47107905,-0.12028734,-0.13483208,0.44600886,-0.14366993,0.09494577,-0.004468981,0.16814479,0.15220976,-0.048217665,-0.624698,0.01489301,-0.08095348,0.31450647,-0.18510965,-0.13848922,-0.03391925,0.09467375,-0.1694664,-0.08237611,0.062120803,-0.27646026,0.29233035,0.12563732,0.14791605,-0.08436713,0.32095873,-0.035471283,0.11254714,0.18004648,0.12091041,-0.080847755,-0.0121288635,0.25804138,0.25050735,0.3370714,-0.29055128,-0.21752758,0.07871331,-0.081429206,0.03949628,-0.028982833,0.22875188,0.32740867,0.35051396,0.22703528,0.11661351,0.004541166,-0.09670103,-0.33737162,0.32123545,0.0209805,-0.16607136,0.11021189,0.02029398,-0.38377148,-0.2482293,0.10564989,0.26879156,0.37006593,-0.11698054,0.040601294,0.22640741,-0.23887889,-0.15458561,-0.32749033,-0.17401057,-0.04742055,-0.46529487,-0.42730302,-0.11368125,-0.27123326,0.12935211
Anaerovorax_odorimutans,-1.0231838,0.08716935,-0.41775054,-1.187315,0.44596556,-0.94556236,1.4889178,0.91071355,0.70137084,1.6690607,0.027392566,-1.0923228,-0.055589452,0.16840453,0.25504398,0.072880924,0.555928,-0.112118766,-0.1240153,-0.6806103,-0.1965434,1.3470645,-0.8223143,0.143354,0.8867818,-0.40744454,-0.7112222,0.22168972,-0.69917303,0.44625854,1.0972311,-0.098282814,-0.71405804,0.30204058,-0.45603353,0.77121043,-0.3042525,-0.3595499,-0.9529853,0.44580758,-0.13332114,0.31704235,0.88822275,-0.23859423,0.39514208,-0.005807137,0.019098178,0.6335802,0.55945086,-0.1028516,-0.6164966,1.0610046,-0.30678582,0.3461347,-0.1360199,-0.38045216,-0.7281224,-1.1684544,-0.21660654,0.02179277,0.9292741,0.42908353,1.6299784,-0.5115299,0.61745065,0.100204825,-0.3546709,0.8748065,-0.34191284,0.629656,-0.3308439,-0.16816023,-0.67371166,-0.48056173,-0.3189028,-0.11207143,-0.5284089,0.12093696,0.32369158,0.6545088,0.081890374,0.87083423,-0.35519317,0.6313671,-1.2994194,-0.4410122,-0.19024743,1.4241959,0.1495312,0.45180386,0.27205855,-0.8816032,-0.27430105,-0.24961129,0.36799657,0.38587195,-0.9350865,0.50147533,0.0081043765,1.2725339
Asaccharobacter_celatus,0.17583421,0.4863599,0.95183396,-0.37659907,-0.56027627,-0.08507835,-0.49584037,-0.16043723,0.71779096,0.40699673,-0.12206682,-0.47655335,0.1080316,-0.44953758,-0.4883269,-0.1845456,-0.27974057,-0.27552414,-0.9454171,0.26700205,0.11397183,-0.1721215,-0.5777805,-0.29375052,0.13514763,-0.50847316,0.1258505,-0.19785717,-0.17727558,0.0928867,0.10014719,-0.0037690997,0.101021215,0.06590066,0.04254359,-0.1746564,-0.0032432377,-0.5366778,-0.25040847,0.375309,-0.36372644,-0.026535578,0.27355176,-0.041883416,-0.20944399,-0.2874154,-0.19921508,-0.052504778,0.17734942,-0.16132851,0.056530543,-0.030072749,-0.016896356,-0.56115854,-0.16463086,-0.032700285,-0.33567202,-0.72329724,-0.2680398,-0.6801322,-0.5204319,0.89582455,0.30134255,-0.5434177,-0.3442371,-0.023301348,-0.08736452,0.96399975,-0.28782383,-0.007946535,0.12710406,-0.3127653,0.05171143,0.2137806,-0.37057057,0.009127919,-0.2755325,0.10050675,0.69834983,0.0154848695,-0.24307902,0.048870653,0.06317784,-0.2360023,-0.03551072,-0.78724265,0.24201685,0.2947586,0.059046004,0.33994335,-0.19138373,-0.06650068,-0.9754124,0.1044541,-0.40666372,-0.35784727,0.3372206,-0.11034894,-0.4851116,0.27789503
Atopobium_parvulum,0.15752853,-0.11285281,-0.056296535,0.32183126,-0.5677174,0.14572631,-0.07485838,0.18551813,-0.50512815,-0.69174176,0.026315358,-0.22899854,0.4534991,-0.0075037945,0.33223572,-0.033082098,0.391886,0.007537797,0.71276104,0.5474929,-0.10322147,-0.25275373,-0.120481975,0.5550302,-0.008100547,0.23619947,-0.1945154,0.23482567,-0.33344758,0.15148932,-0.33988762,-0.4094085,-0.03522082,-0.228811,0.046138387,0.15114474,-0.39109892,0.30326167,0.6681459,0.52821356,0.10599332,0.0604092,-0.3236621,0.20886347,-0.011353552,-0.041080043,-0.0603351,0.14060512,0.27182278,-0.16400813,-0.57574314,-0.6630795,0.3977928,0.68266666,0.22168398,-0.07858102,0.31090766,0.7722864,0.031633362,0.19297034,-0.21326558,1.0624824,-0.7843394,-0.036582224,-0.1260196,0.12115386,0.14330038,-0.6726999,0.20212837,0.08307393,-0.36646885,-0.0718215,-0.6514206,-0.14784026,-0.054330178,0.03690739,0.85221547,-0.25209725,-0.3376698,0.18828711,0.093730114,0.4158938,-0.2195766,0.05491327,0.12821889,-0.017027438,-0.07669044,-0.19667746,0.33394778,-0.30693007,-0.18558693,-0.18181181,0.38781595,-0.6405277,0.02576352,-0.16841152,-0.13383734,0.23301104,-0.064102426,-0.5556346
Atopobium_rimae,0.11457581,-0.1993778,-0.34832227,-0.056686267,-0.0740495,-0.2906937,-0.24171433,0.020031601,-0.47648287,-0.3697383,-0.16356365,0.09961784,-0.034908168,-0.30721277,0.07814227,0.25270262,0.23311426,0.2707318,0.18712686,0.007233709,0.32194245,-0.2509266,-0.20427091,0.3340766,-0.34461895,-0.42355376,-0.21727395,0.010857731,0.1047624,0.2627022,-0.24429521,0.21801095,-0.101478815,0.10344405,-0.09404142,0.11067483,-0.44784933,-0.37265337,0.12185137,0.08756771,0.0048079714,0.029859304,0.0014819652,0.21718891,-0.15438063,-0.3499664,0.080124445,-0.15727408,0.4728318,-0.16749485,0.084640816,0.19607413,0.09725179,0.18753505,0.18245535,-0.23979943,-0.59697014,0.022864893,0.078087136,-0.20276012,-0.082495555,0.40899274,-0.36685476,-0.3957736,0.042121947,-0.52316886,-0.3417588,0.19139041,-0.07910825,0.031982243,-0.31977606,0.09030186,-0.35166338,0.09044712,-0.076178074,-0.5644636,0.57281977,-0.69330287,0.021719798,0.10278103,0.33461264,0.042867944,-0.3599962,-0.23511396,-0.0092061395,-0.41691422,-0.2339693,-0.27530456,0.20297758,-0.51527196,-0.37676483,-0.13321884,0.3828942,0.26576078,0.119138725,-0.34745097,-0.48055077,-0.11496777,0.058759257,-0.15670772
Bacteroides_acidifaciens,1.0989168,1.4203848,-0.5321678,0.22805563,0.16354805,-0.2770303,0.07548055,-0.3256332,0.28363758,-0.12144968,-0.25745657,0.73930013,0.32655644,0.53678155,-0.2966987,1.392134,0.37813216,-0.6098485,-0.6921259,0.73137736,-0.7296808,0.64179754,0.30421853,0.41590804,-0.6337155,-0.4671222,-0.49239266,-0.32601836,0.5192226,-0.09734638,0.70622313,1.0153662,-0.37428647,0.20708054,-0.08320283,-0.4445879,-0.5088496,0.14258163,0.2694596,-0.0080064535,0.4392477,1.8039713,-0.29619202,0.5299564,0.6966283,-1.4771656,-0.822824,-0.08493629,-0.33367312,0.79337126,0.25411305,0.37671363,0.7821723,-0.60410464,-0.35426685,-0.25392398,0.65401375,0.3899173,1.3859296,-0.55681837,-1.9516577,1.1586001,-0.010124264,-0.36487874,0.06665456,-1.0964599,0.25723553,-0.2500618,0.7466463,-0.91703624,-0.58936626,0.010883816,-0.49620375,0.2483364,-0.2133095,-0.7263793,0.02362895,-0.21194838,0.50772595,-0.9827159,-0.7449328,-0.057475775,1.7029865,0.35358143,0.20825468,-0.7635462,-1.7323308,-0.12832397,-0.49558967,0.6175124,0.31221876,-0.1225422,-1.054798,1.2198455,0.3054481,1.0516295,-0.41745567,0.6857394,-0.40261406,-0.45840654
Bacteroides_caccae,0.0347474,0.21883981,0.02792412,0.028556963,0.026440665,0.15528524,-0.23197846,-0.22911553,0.050845735,-0.056490984,-0.03740914,-0.43370968,0.02790077,-0.1470847,0.01800707,-0.16463643,0.27376795,-0.660663,0.050767105,-0.2660553,0.151717,0.3421075,-0.63193184,0.08378874,0.5824871,-0.15092376,0.23264353,0.24574006,0.16279887,0.31900603,0.090140134,0.64787745,0.26531035,0.09096073,0.4136606,-0.27535036,0.41578072,0.29399136,-0.42635274,0.40233964,-0.3161989,-0.25959665,-0.052699782,0.1929684,-0.26425225,0.07387443,-0.42082602,0.3672201,0.42826444,0.02799952,-0.22416823,0.20729735,0.051896468,-0.33763394,-0.5441782,-0.040985055,0.25990576,0.36666474,-0.56401926,-0.31301764,-0.0054661036,-0.11086705,0.009975001,-0.08923616,-0.57965773,-0.06634268,-0.010665506,0.090902925,-0.03346138,-0.06986804,0.2620139,0.2027806,0.11495224,-0.29519323,-0.2869698,-0.0890612,0.2644275,0.2874808,-0.014462878,0.015328802,0.15656868,-0.045762032,-0.5096635,0.05286484,0.5025649,0.20855503,-0.38803416,-0.03417538,0.06732805,-0.2655934,-0.08857473,0.5082062,-0.07951931,0.27639112,0.36857697,0.4357037,0.07517446,-0.00043979287,0.23609349,0.17709295
Bacteroides_cellulosilyticus,-0.024134569,0.44871372,0.23324992,-0.21933109,0.695739,-0.20224606,-0.2746715,0.054851696,0.090723954,0.1329859,0.06133831,-0.142769,-0.12304973,-0.35057583,0.04614327,-0.10058515,0.32133138,0.06544841,-0.06892234,-0.33083022,0.48826203,0.2657843,0.33382362,0.3279237,-0.21064192,-0.14831641,0.59604454,0.35801417,-0.024128396,0.15214281,0.38326037,-0.16034026,0.052954994,-0.26272732,0.4181939,-0.36403874,-0.23620343,0.24600612,-0.3031494,-0.13612923,0.022378996,-0.39433122,-0.031210836,0.0052673123,-0.07909328,-0.31984615,-0.1652677,0.3832937,0.057537407,-0.024947487,0.35560745,-0.20262384,-0.16082278,-0.75676394,-0.06489141,0.259167,-0.12149365,-0.07825537,0.08891721,0.19266085,0.054504633,0.082861096,0.44813088,0.123580545,-0.05049289,0.28388977,-0.1790035,0.0050084665,0.17606327,-0.3681414,0.31463572,0.21808499,0.5345607,0.03127443,-0.048122913,-0.08901426,-0.0040594516,0.46433362,-0.0070637614,0.30075914,0.14833082,-0.16774012,-0.08287387,-0.029126003,0.1007635,0.36078823,0.08858557,0.020270642,-0.1020027,-0.0663241,-0.012647912,0.25288805,-0.33136025,-0.004417043,-0.03510709,-0.14799784,-0.00819537,-0.27330035,-0.5387263,0.34123677
Bacteroides_clarus,-0.07509465,0.1018417,0.18479368,-0.09503508,0.40620568,-0.05670869,-0.19082862,-0.031905353,0.15638296,0.19497027,-0.0024678838,0.044093926,0.053039078,-0.2138858,-0.16081065,-0.06829108,-0.00043284567,-0.31223643,0.020264976,-0.07160615,-0.26342908,-0.09337317,-0.40350938,0.21060953,0.07098341,-0.12658596,0.04061659,0.04893992,-0.22652546,-0.15855944,0.030482205,0.13826634,0.03450821,0.13426395,-0.101807825,0.18904144,0.05077412,-0.12468508,0.07019045,-0.023363423,-0.17558746,-0.036647424,0.025284097,0.08794028,0.13322023,-0.00039889663,0.19573624,0.023927003,-0.01903104,0.2745016,0.18200971,-0.16873023,0.18989798,-0.2212865,0.03553339,-0.20077346,-0.06735406,-0.07409856,0.15899923,-0.065881945,-0.2170672,0.13127652,0.33508646,0.14893392,-0.0857367,0.23127648,-0.02548585,-0.13678864,-0.23873597,-0.06170725,0.2391982,-0.048721373,0.26330772,-0.076279566,-0.26108858,-0.049261823,0.01550667,0.3357818,0.2798994,-0.08835301,-0.0040874034,-0.25052017,0.13807304,-0.1415326,0.01709577,0.18724836,0.10964883,-0.13103677,0.11763301,0.09568187,0.120951906,2.2530556e-05,-0.12979555,0.079119675,0.012761485,-0.1883924,0.32862553,-0.09082347,0.08284013,-0.0731854
Bacteroides_coprocola,-0.115979716,0.36418664,0.12103338,0.3054891,-0.00089776516,0.01178886,-0.23068695,0.041339785,-0.50891656,0.2767332,0.24828659,0.29619,-0.09370975,-0.07264492,-0.11128588,0.30717307,0.019192705,-0.38440365,0.18610418,-0.28854924,-0.06405501,-0.17235762,-0.07451324,0.010776252,0.041038334,0.17747068,-0.2509081,0.036523215,0.10988093,0.1639766,0.2381279,0.39357662,0.42703384,0.2515931,0.09086479,-0.17618293,0.07892146,-0.13152829,0.14094815,-0.062445268,-0.029901318,0.011425608,-0.4278649,0.06143412,0.021200322,0.026015304,0.24855629,0.38291824,-0.006013494,0.29894924,0.49794656,0.20062265,0.22536492,0.1592496,-0.2336732,0.16974273,0.2793939,0.3640844,-0.21705407,-0.44739997,0.06842968,0.1331335,-0.114741586,0.26380244,0.46348932,0.60219276,0.19932157,0.49223328,0.32497296,0.4362063,0.27740845,-0.19184591,0.53720784,0.56015235,-0.27054152,0.10046574,0.23913278,-0.020009376,-0.13001502,-0.21057409,-0.045427512,0.3196141,0.10225107,0.06933607,0.0053867996,0.27573717,-0.015876397,-0.39550066,-0.06543915,0.07600315,-0.42541614,0.28008965,-0.2097666,0.12911907,0.12132373,0.29438305,0.24554986,0.016289078,0.1776705,0.1551766
Bacteroides_coprophilus,-0.35011464,-0.060222164,-0.38852507,0.24826056,0.5117023,-0.031013452,-0.2130518,0.42651933,0.44755775,0.091913216,0.6822451,0.4870865,-0.058634765,0.029799007,0.29229927,-0.08367376,-0.3006808,-0.09960872,-0.16318104,0.2845668,-0.14603077,-0.12050261,0.21621212,0.08725385,0.3168994,-0.06064084,0.17512381,0.23150395,-0.10344587,-0.10009306,0.20206791,0.3664402,0.9458829,-0.02304475,0.7995865,0.20462668,0.16964562,-0.11800127,-0.35042724,-0.20634821,-0.052207924,0.14900245,0.08247222,-0.05649668,-0.1866315,0.056901045,-0.23120105,0.18400839,-0.20195115,0.17386803,0.078743406,-0.50162506,0.10193305,0.15196285,-0.06296083,-0.5224846,-0.23024577,-0.09885105,-0.33608216,0.11142011,0.430719,0.101730414,0.16411309,0.1942173,0.42095867,0.14699055,0.42369324,0.13606754,0.24323536,0.006508447,-0.15569767,0.1382688,-0.048556373,0.21502042,0.08838494,-0.3825574,0.26051068,0.10237169,-0.07655865,0.06345166,-0.1705679,0.1851736,0.26263064,-0.32340536,0.17006111,0.02601564,0.1098163,-0.029945131,0.0771165,-0.11512129,-0.29840907,0.71637577,-0.025863875,-0.54879254,0.019251944,0.10900029,-0.03359264,0.2593715,0.3395521,-0.2672682
Bacteroides_dorei,-0.16113657,0.24758434,-0.061039597,0.16795018,0.29786545,-0.24400593,0.19732252,-0.16859423,-0.48308063,0.008866072,-0.06329499,0.20623446,-0.40394446,-0.2468588,-0.07223373,-0.49150327,0.1060327,-0.08113773,-0.586131,-0.539901,-0.52687836,-0.4189859,-0.19548352,-0.11274506,0.073851556,1.1023805,0.69671565,0.40987563,0.1731934,0.3559851,0.50245684,0.021845117,-0.32696426,-0.013488248,-0.20668083,0.3224648,0.15028638,-0.25088146,-0.088094324,0.28204027,-0.23952197,0.07904568,0.27286944,0.17311916,0.1495731,-0.26181382,0.092555605,-0.18078704,-0.3626224,-0.04242818,0.33874777,-0.49762246,0.07590976,-0.5481983,0.35736066,0.4660397,0.64618057,0.61726004,0.34274495,-0.53211,0.4650281,-0.0023095235,0.21420646,1.1006436,-0.5735299,0.17026213,-0.3906315,0.06721379,-0.37752944,-0.834997,0.078192525,-0.29714468,-0.427107,-0.34396175,0.58174443,0.30766758,-0.014496174,-0.063411236,0.3008061,0.06826943,-0.07029891,-0.41278875,-0.6510894,-0.5723418,0.43905622,0.36831933,0.14848316,-0.3748685,-0.48815706,-0.041703805,0.46281555,-0.3924872,-0.2839182,0.62386584,0.03790745,-0.12736124,0.4418261,-0.118506365,0.13049023,0.0725362
Bacteroides_eggerthii,0.02833578,0.18862326,0.1307362,0.04810612,0.47000566,0.16530333,0.057653505,-0.074543886,0.07694374,0.38656235,0.098626345,-0.34711385,-0.08599979,-0.2607058,-0.065008625,0.14444801,-0.14023286,-0.24944389,0.12761486,-0.16711047,0.09036853,0.12556382,-0.0994845,-0.065704845,0.26403117,0.22947194,-0.17345217,-0.025326483,-0.0218006,-0.006248096,0.03329338,0.13709542,0.07191833,0.14097106,0.08801969,0.054949224,-0.045919843,0.06643342,0.11370277,0.15273853,-0.04281856,-0.10572962,-0.13584323,0.0023939013,0.12886533,-0.16713613,-0.039164923,0.50922173,-0.08228603,0.10168436,0.2211344,-0.09385209,-0.031715833,-0.054169666,-0.075356185,-0.26637748,-0.124175794,0.04235264,-0.18866938,0.17092368,0.096593276,-0.10774191,0.06119263,-0.03401804,0.06589837,-0.10794911,-0.0012439033,0.12559138,0.002138555,-0.1400838,0.18843864,-0.065359026,0.3446361,0.0412937,-0.24738549,-0.07590032,0.03238862,0.15865219,-0.16227543,-0.04658988,-0.09493371,0.13491346,0.11939725,0.0009018779,0.17688896,0.4410079,0.24659342,0.027655069,-0.28853777,0.07220876,0.009497292,0.085147604,-0.38425022,0.23420656,-0.11996273,-0.2982245,-0.12651038,0.06035092,-0.1511209,0.11328685
Bacteroides_faecichinchillae,0.7498181,1.2209582,0.26354647,0.97816014,0.012912497,-0.6794459,-0.62658656,0.24824153,-0.22823964,-0.7034631,-0.31268537,0.74495625,0.24549033,0.037996374,-0.37320632,-0.22875775,0.27891508,-0.11404258,-0.514758,-0.84403074,-0.17991957,0.6569867,-0.2599217,-0.8546126,0.06058553,0.11616948,-0.31412402,0.50604856,-0.39485365,-0.6492773,0.9492419,0.08248603,0.047717385,0.11238396,0.86280614,0.50033784,-0.70010674,0.07942506,0.07291636,-0.24606307,0.18580416,0.32019895,0.5787214,-0.05767314,1.1724432,0.14755616,-0.6491064,0.2758329,0.2869037,0.26917386,0.33503962,-0.5173568,-0.0994703,-0.5022335,-1.1232575,-0.039239388,0.22847313,-0.417922,-0.51914394,0.16464096,0.38326138,-0.1592477,0.23700795,0.14229193,0.09791619,0.7088044,0.08689046,0.0112681985,-0.10996179,-0.17838894,0.08287466,0.046125293,-0.52678275,-0.18002698,-0.32857388,-0.33782554,0.6968557,0.16863002,-0.087810226,-0.39803424,-1.0854824,-0.24086897,-0.01455687,-0.18700078,0.426788,0.73805207,-0.0925116,0.39816535,0.51171523,0.5051243,0.23748325,0.5334269,0.48968208,0.03113373,0.6637678,-0.04111184,0.5320698,0.1252702,-0.1729496,0.41577175
Bacteroides_faecis,0.24154156,-0.07828809,-0.7356139,-0.072367676,0.23723672,-0.62091744,-0.88537437,-0.56333816,-0.45037973,0.4972747,0.2677877,-0.2737237,-0.48910445,0.39740214,-0.44070345,0.32756937,-0.4552737,0.00745064,-0.4011938,0.58919865,-0.66133416,-0.16256495,-0.35350347,0.08328514,-0.123556614,-0.2196566,1.081437,0.23693228,-0.41222662,0.40227583,0.6601141,-0.21705586,-0.10321897,-0.19322352,-0.063059494,0.7084445,-0.22085057,-0.04549718,0.49753147,-0.060362652,-0.17259715,-0.06378049,0.062792785,-0.047355667,0.72570837,-0.51405555,0.2925775,0.2747572,-0.06657364,0.38618335,-0.24485737,-0.1366846,0.3633523,0.47870302,-0.66688967,0.23598467,-0.2412732,0.9488183,-0.047643807,0.26463172,-0.55682003,-0.30496663,0.11362301,0.34054306,0.24464372,-0.023046888,0.33005315,0.058043562,-0.3680004,-0.69881356,0.40325707,-0.104408614,0.22327316,-0.091643535,-0.19427243,0.36857015,-0.11474341,-0.0011001527,0.22133884,-0.32422167,0.4373526,-0.44982186,-0.13215145,-0.17258854,-0.1454781,0.21357669,-0.16379383,-0.5495831,-0.44865048,0.046164572,0.32506832,-0.030354679,0.010139778,-0.033933014,0.071833014,0.42554075,-0.34523687,0.18917203,0.471601,0.20267798
Bacteroides_faecis_CAG_32,0.65172696,0.77631027,-0.30134755,0.46588683,0.4711693,0.35247824,-0.72718114,-0.11249578,-0.38869813,-0.46496475,0.46364027,0.34872875,-0.1143443,0.45325825,-0.044262916,1.5459073,-0.35453445,-1.4385899,-1.1656272,1.0986156,0.12748954,-0.7869189,-0.6500087,-1.1317039,-1.2871146,-0.45866686,-1.1396497,0.5636772,1.6116025,-1.8828249,0.3662022,1.1774116,1.6179157,-0.816213,-0.59141606,0.13106662,-0.2001686,0.62746686,0.13258436,0.47954655,0.22520423,0.6440361,-0.27774158,1.2698915,0.29135305,-1.8342367,-0.55899477,-0.32454836,-2.003326,0.12261173,0.6011373,-0.56221396,0.6632049,0.08228862,-0.5545688,0.30778712,-1.2993612,0.7623035,0.33039123,0.53618276,0.116882056,-0.37163058,-0.061217174,1.1892741,-1.3742225,-0.024097696,1.080707,-1.1387873,-0.10832906,-0.25574732,0.68940544,-1.6227143,-1.0717089,0.08575693,-1.2320774,-0.9708038,-0.011888266,0.23905483,0.56638235,-1.9806831,-0.23786041,0.7705745,0.7663722,1.0893066,-0.49590957,0.19128488,0.75023377,0.22029173,0.77026427,0.115331516,0.32358855,-1.0149252,0.8960415,1.2708813,0.76684314,-0.5014492,1.1120143,-0.34326595,0.4372844,-0.22912005
Bacteroides_finegoldii,0.015574627,0.19247398,0.12394032,-0.049916502,0.4765842,-0.2389252,-0.2743882,-0.36753356,-0.14650634,0.29611126,-0.006816704,0.27350095,-0.06627007,-0.2551233,-0.15700358,-0.20162974,-0.037721947,-0.429144,0.2906474,-0.4251104,-0.48939794,0.12487997,-0.3387252,0.33189106,0.055558376,0.030121643,-3.6092475e-05,0.2531035,-0.00226516,-0.13483413,0.07808514,0.0054394193,-0.04312349,0.059710473,-0.091027886,0.08587694,-0.053586833,-0.18374005,0.022483587,0.14980859,-0.28662753,-0.12306915,0.18405391,0.27980047,-0.15386714,0.10459898,0.00010650605,-0.049633123,-0.010744527,0.29055327,0.3786415,-0.1514535,0.0088297315,0.2853517,-0.026578888,-0.3348366,0.0145500265,-0.018795118,-0.027014904,0.19360751,0.0033423007,-0.0053526796,0.19730414,0.06198265,0.017069578,-0.05178334,-0.2657894,-0.20701279,0.12729943,-0.18623748,0.35955626,0.06079086,0.5281579,0.14176697,-0.034320407,0.012446944,-0.08965805,0.38314745,-0.006181387,0.08925864,0.3451537,-0.01903852,0.1181359,-0.13642001,0.041404806,0.41697848,-0.11876147,-0.26845053,0.0032693446,0.045864295,-0.14173734,0.35055402,-0.15278618,0.32470375,-0.026689216,-0.17437911,0.1659227,-0.0062092766,0.11117897,0.042674713
Bacteroides_fluxus,0.18647477,0.66079843,-0.6520275,-0.22705588,-0.16868699,0.50064266,1.3926356,-0.88074636,0.92001647,1.0368811,0.23936485,0.32746443,0.84114623,-0.4171173,0.69854724,0.67313206,-0.6840457,-0.50959724,-0.112884134,-0.35067806,0.28058168,-0.8772433,-0.8458591,-0.09587985,-0.6116704,0.5844154,0.03384596,-0.21991874,-0.08786309,0.2720752,-0.30176792,-0.32287785,-0.7021707,0.45085096,-0.09424627,0.2873542,0.31476554,-0.7140694,-0.8545191,0.18652171,-0.49858925,0.8780106,-0.063896894,-0.4570138,0.3555804,0.45756784,0.16004863,0.4498109,-0.43012255,-0.3746,0.4691596,0.3640157,0.2896739,0.7597821,-0.85265565,0.03539597,0.62449837,-0.2994456,2.1263204,0.71791637,0.22677606,-0.05604941,-0.35030004,0.5611141,0.63103336,0.33581328,-0.48242015,0.041394293,0.7327414,0.3559565,-0.047308236,0.08721042,0.19880356,0.2902891,-0.7617229,-0.39575988,-1.2207444,0.30512297,-1.1201451,0.6656763,-0.6990518,0.4919907,0.07062134,-1.3602848,0.3851639,-0.015357077,0.054065198,0.7497033,-0.39740106,0.14389461,0.31451198,-0.5289557,-0.7359623,-0.035022467,0.03138327,1.1298728,0.7655763,-0.1350064,-0.39177263,-0.46287602
Bacteroides_fragilis,0.3731184,-0.006510906,-0.009023681,-0.22126012,0.118128955,0.30717176,0.0030019332,-0.2247234,-0.28528678,-0.10508849,-0.04744054,0.16596293,0.025071174,-0.23489189,-0.18149838,-0.046455234,-0.042171165,-0.078562185,0.065709904,0.10314001,0.12620173,0.17799334,-0.068655126,0.6339369,0.064752236,0.30155525,0.1349706,-0.079359576,-0.0026235054,-0.021825656,-0.19334868,0.19666082,-0.20448132,-0.2544955,0.2424584,0.11235308,0.122469015,0.23130076,-0.04981233,0.12141547,0.22324722,0.24007803,0.29433367,-0.042567622,-0.3618197,-0.15071791,-0.26998508,0.22349271,0.08024742,0.274466,0.016180392,0.0025136527,-0.2658284,-0.042038962,0.12554969,0.2481666,0.21015297,0.110628575,0.17564817,-0.001791764,0.03848926,-0.09131753,0.1028699,-0.20700301,-0.30984953,-0.1467022,0.21311623,-0.27844787,-0.068091884,-0.23578884,0.18561602,0.04636713,0.2571231,-0.0042053536,-0.09877415,-0.093037136,-0.011795625,-0.12965332,-0.016441898,-0.036301926,-0.01825782,0.019258186,-0.3272136,-0.054463945,0.22492027,0.05758194,0.17478046,-0.17761543,-0.14088523,0.1668953,0.0035241544,0.11523569,-0.16854542,0.27208385,-0.29221964,-0.13304923,-0.051102616,-0.16928858,-0.37099153,0.324146
Bacteroides_galacturonicus,-0.24698175,0.13127315,-0.03425828,0.00089472905,0.68899167,-0.07355928,-0.06543939,-0.28863144,0.063076384,0.29583383,-0.014327028,0.6979313,0.06320404,-0.04193254,-0.61686057,0.030903459,0.32629454,-0.47873312,-0.2642721,0.016036317,-0.2900948,0.3096418,-0.36371443,0.10718113,0.22085945,-0.28888518,-0.26051986,-0.4018416,-0.025337191,0.1691303,-0.019791648,-0.22579446,1.0139016,0.022893503,0.20155987,0.13657938,0.338025,0.26793793,0.2963996,-0.39752358,-0.17976695,0.1911528,0.73240864,0.68628293,0.4479972,0.21694009,0.0266091,0.08654285,-0.27092275,-0.13900445,-0.44288203,-0.037879445,-0.39755756,-0.25304264,-0.33620244,-0.35477516,-0.25447515,0.41961503,-0.19696349,0.26514968,0.433044,-0.16781257,-0.19173312,0.40093592,0.3066013,0.3670288,-0.24815798,-0.021766886,-0.4452986,0.38822123,-0.9268087,-0.06818655,0.022610039,0.012231939,-0.5277157,-0.060234368,-0.46424443,-0.04688242,-0.31515998,0.33397296,0.21302193,0.21473202,0.60594714,-0.15826946,0.013302065,-0.0312528,1.0211482,-0.013442211,-0.38592046,0.22980842,-0.3785419,0.19031641,0.21678054,-0.022859842,0.113288745,-0.101272024,0.580292,0.123617016,-0.20410109,-0.19581448
Bacteroides_intestinalis,0.030190311,0.09823516,0.12807891,-0.21227947,0.40908432,0.12828568,-0.15117559,-0.0697504,-0.001262173,0.28656465,-0.075737014,-0.48669755,-0.108460546,-0.3138585,-0.14329699,0.40053174,-0.2585206,-0.17617431,0.10252006,-0.23072335,-0.16521618,0.14669499,0.30926618,0.010560535,-0.08878916,0.14119232,-0.0192082,-0.243577,-0.052779593,0.052046712,0.2719455,-0.05485609,-0.1625247,0.11035726,0.092406385,0.27769202,-0.06221506,-0.15595317,0.13162918,-0.0017499495,0.021703571,-0.13316219,0.13242376,0.024913505,0.12067794,0.13915047,-0.015258379,0.17280912,0.029920409,0.3693444,0.20215781,-0.3395159,0.08170139,0.028628305,0.044031546,-0.13128802,-0.12154975,0.08854002,0.011451453,0.09356961,0.20537385,0.08770807,0.2685858,0.173007,-0.21847719,0.11442608,0.091610774,-0.047567744,-0.025479358,-0.23292255,0.07606316,0.20661628,0.27916175,-0.04102558,-0.11331817,0.19552873,-0.4247304,0.117993645,0.10212114,-0.13667995,-0.25678515,-0.0744211,0.21867055,-0.027292486,-0.058896385,0.28966498,0.14806555,0.062370487,-0.1573126,0.13481088,0.09292804,0.1974811,-0.1386523,0.09949623,-0.11617959,-0.14482492,0.033953637,0.046810944,-0.3251311,-0.047731496
Bacteroides_massiliensis,0.10802071,0.044295132,-0.12055247,-0.1256779,0.46215048,0.07803745,-0.22285739,-0.2723169,0.0063392734,0.5712627,0.12822244,-0.21497239,0.11304258,0.03731157,0.27943432,-0.23125784,-0.10422652,-0.5824505,0.25103116,0.0079693645,-0.49318868,-0.16683453,-0.35425836,0.11186098,0.30774853,-0.18670838,0.15758398,-0.14674829,-0.22918788,-0.40648407,-0.0670712,0.30016708,-0.23488498,0.13801418,0.062523074,0.055196725,0.23811537,0.20821318,-0.16649683,0.1611591,-0.20885172,0.32354838,-0.27221984,0.1608426,-0.4691617,-0.27808014,-0.12871557,0.20502228,0.10476616,0.14143384,0.5259925,0.06397532,0.114249915,0.02541212,-0.2616672,-0.19306529,-0.1629396,0.23728907,0.023700453,0.121655315,-0.31996816,-0.036740318,0.21043684,-0.21445778,0.2993902,0.021895863,0.018857062,-0.04818744,-0.07376219,-0.1310742,0.1565426,-0.060003348,0.1846078,0.32102314,-0.20645545,0.07673867,0.04982155,0.47466573,0.16426617,-0.27623603,-0.21824268,0.0894977,-0.04917755,0.1195194,0.31930485,0.46779457,0.01336585,-0.14180264,-0.26958442,-0.28311086,0.15495907,0.16892332,0.1028497,0.075509936,0.11388503,0.11187461,-0.46121085,0.0007170215,-0.21770573,0.15364791
Bacteroides_nordii,0.2524857,0.29070082,0.27853972,-0.17495108,0.4171111,-0.21820852,-0.32700327,-0.22097473,-0.19443229,0.011579967,-0.3204406,-0.53390455,0.045143764,-0.06386214,-0.37043583,-0.045274407,-0.07334112,-0.041212242,-0.2929528,-0.014120247,-0.26921222,-0.020604923,-0.21688893,0.61236584,0.32610437,0.14722955,0.17458098,0.21650958,-0.13840462,-0.13926014,0.118177034,0.29245275,-0.027258672,0.07026993,-0.585604,0.012948856,0.02589921,-0.25038046,-0.02604714,0.07149036,-0.11181985,-0.30202964,0.2931788,-0.2214605,-0.22315311,-0.18339112,-0.11553053,0.007285782,0.22099054,0.16788223,0.20436148,-0.12740175,-0.07784195,-0.09984459,0.17036116,-0.29106832,0.06144651,-0.21033691,0.03407656,0.017794577,-0.0011962205,-0.029672245,0.43023995,-0.06379863,-0.11200278,0.24147148,-0.2839464,-0.082050264,0.050800577,-0.06913749,0.3363269,0.37405705,0.40433353,-0.26839182,-0.08714764,-0.010737916,-0.26055765,0.12296787,0.098195,0.11901541,0.014030778,-0.24933173,-0.09760992,-0.16167152,-0.06304001,0.643798,-0.010521457,0.08775743,-0.20062807,0.0403045,0.5589921,0.36888877,-0.3608024,0.09948167,-0.2724885,-0.14418149,0.12560609,0.016623817,-0.23237821,-0.19334494
Bacteroides_ovatus,-0.24592438,0.15809071,0.035015717,1.2382882,0.61048347,0.9248289,-0.93268454,-0.5852223,-0.18395528,0.63629514,-0.40111172,-0.03990498,0.42743587,-0.47800237,0.31897858,0.44499087,0.12320739,-0.4484203,0.011817291,-0.5675695,-0.6187002,-0.024032064,-0.5992712,0.5981465,0.069589004,0.09331973,-0.13771065,0.15731476,-0.16882448,-0.86663884,-0.06933445,0.95985794,-0.56512845,-0.121489465,-0.20949984,0.61928517,-0.046233833,-0.6525811,-0.5729819,-0.8841411,1.0938387,0.21168518,0.65378475,0.63952416,-0.33648962,-0.19361763,-0.8026528,0.2727318,-0.16694537,0.6645384,-0.49674407,0.08935867,-0.4049343,-0.2574439,-0.41040552,-1.1729782,0.10036567,-0.17286463,-0.16723041,1.0576108,-0.3218313,0.32777935,-0.15030311,0.0626104,-0.60826766,0.13065219,-0.47449863,0.5925599,-0.04779855,-0.5030595,0.5485189,0.27915704,0.26369828,0.12958837,-0.7698114,0.18841459,-0.38582522,-1.2540779,-0.34722838,0.084606454,-0.48176923,-0.08026731,-0.44892433,-0.29768816,0.30482084,-0.24335985,0.341318,-0.4073765,0.24216466,-0.2769121,0.17148045,0.43523216,0.11465427,-0.15113288,-0.05422312,0.29709297,0.36172664,0.40779012,-0.14363787,0.31545922
Bacteroides_paurosaccharolyticus,-0.9114955,0.124614,0.16055281,0.46349844,-0.3427329,0.44932535,-0.015300423,0.222193,0.010007322,0.17000377,-0.27315047,-0.6537015,-0.5896916,0.70049495,0.008768693,-0.9154944,0.5453707,0.9243809,-0.36275524,-0.29540482,-0.3161376,0.20225576,-0.0066019893,-0.25612387,0.057729974,-0.16724572,0.08251855,0.54674935,0.4046303,0.013943516,0.3432427,0.70941645,-0.12123044,0.53715116,-0.310462,0.7091199,-0.08167668,0.6247878,0.7813216,0.6340231,0.18116489,0.28466362,-0.50787187,0.52210516,0.2193214,-0.2529794,-0.29831454,-0.79520094,-0.79797494,0.077229574,-0.25810248,0.4087278,-0.52087563,-1.1900198,-0.0100250915,-0.8210051,-0.27593938,-0.9601488,0.43811813,-0.35231572,-1.2008649,-1.2315707,-0.28704906,0.20593654,-0.12808315,-0.58860475,-0.90377086,0.85509133,-1.1489983,0.811853,0.5974449,0.20846355,-0.22062004,0.41910708,0.41522565,-0.38474858,-0.40442333,-0.4164745,-0.26369557,-0.68505216,0.89399225,1.2820404,0.29733193,0.4467824,0.33104932,-0.6610763,-0.040486783,1.2473065,0.7101337,-0.01657483,-0.5326938,0.56555796,-0.03192109,-0.18871525,-0.83012986,0.58713996,0.25577402,-0.5525623,0.1999568,-0.06458866
Bacteroides_pectinophilus,-0.6830636,0.17977299,-0.41048968,-0.090536945,0.21228728,-0.21661809,-0.5041881,-0.17241311,-0.041601893,0.04266633,0.36061564,-0.028486818,-0.34628683,-0.36500353,-0.2889031,0.6768882,-0.23603272,-0.5227864,-0.040210046,-0.056357536,0.0072728693,0.08476943,0.27566245,-0.6206131,-0.19708721,-0.148704,-0.5636838,-0.24779853,-0.18213065,0.2335723,0.26509714,-0.35112813,-0.45301074,0.2533628,0.4105014,-0.10083964,0.43438146,-0.2987897,-0.022291914,-0.41339272,-0.55164003,0.14420071,0.22678226,0.061830357,-0.1583632,0.08682394,-0.34051314,0.067991,0.036374845,-0.0054989755,0.26869094,-0.11185075,0.075129345,0.048873216,0.12721422,-0.058953386,0.3539297,-0.48985007,-0.84132147,0.06231782,0.5689237,0.4745755,0.8469932,-0.49306816,0.63376033,0.27821064,-9.231269e-05,-0.7311443,-0.34950697,0.16837677,0.110758424,-0.23267518,-0.4958932,-0.06946589,0.10689934,-0.31164157,0.068127066,0.39708224,0.08007732,0.19041963,0.06032781,-0.34850025,0.0858528,0.31397086,0.046429515,0.61391103,0.117757365,-0.024299547,-0.21703573,0.4163842,-0.491392,-0.30973846,0.1605047,-0.9732079,0.14362337,0.056897625,0.1998844,-0.2977042,-0.19088289,-0.58451307
Bacteroides_plebeius,0.3838575,-0.24076301,-0.33095592,-0.41712344,0.2626026,-0.13557038,-0.053371094,0.22807357,-0.56737167,0.5959727,0.7128352,-0.09640719,-0.010196097,0.05131583,-0.0416349,-0.57672477,-0.032649975,-0.5213423,0.067292556,-0.15957612,-0.31577685,-0.28865248,-0.27296856,-0.01438874,-0.32485366,0.08260934,-0.23845635,-0.05564566,0.03430239,-0.0877423,-0.060475938,0.028509889,0.5424475,-0.002425097,-0.06770745,-0.12264895,0.28590548,0.04483316,0.11121002,-0.04709472,-0.45078048,0.045748234,-0.22415222,0.32402915,-0.0600511,0.32712513,0.06576887,0.4037119,-0.3806865,-0.057024255,0.78602415,0.123333246,0.7135274,-0.6432645,-0.39897466,-0.14177097,0.3022622,-0.18139735,0.45997962,0.035863288,0.32108608,0.038859073,-0.011769243,0.2626218,0.8291433,0.37377483,-0.2784933,0.4287092,0.050971426,0.008467361,-0.11858182,-0.03377691,-0.10377378,0.19162315,-0.44975084,-0.13448806,0.112927526,-0.18468279,0.21123144,-0.38235545,-0.35261637,-0.58985484,-0.34542972,-0.0054831505,-0.029812865,0.592031,-0.084196,-0.18328103,0.30908915,0.22876099,0.046155035,0.46480042,-0.21178202,-0.2778896,-0.2018661,0.29325092,-0.7052799,0.29782122,0.46157157,-0.14460063
Bacteroides_rodentium,-0.3162226,0.26498258,-0.19195083,1.3143382,-0.027154528,-0.0584671,0.5638867,0.17798167,0.5892845,0.46532127,0.11741397,0.53342414,0.9253367,-0.29782763,0.093858615,-0.6195101,-0.48323137,0.013444036,-0.13995326,0.021403484,0.23044857,0.09751542,0.035395607,-0.869418,-0.49447736,0.8116478,0.7312718,0.2476189,-0.2049385,0.007108189,0.73216504,-0.15877104,-0.04819738,0.32017213,0.089905724,0.0058456734,-0.7650879,0.12086105,-0.16857207,1.460007,-0.024772454,-0.13113818,-0.34250796,0.1364101,-0.54338807,0.19069758,0.25393665,-0.5274774,-0.08242934,0.79025733,0.16064519,0.95112723,0.92447275,0.93172395,0.6412694,0.031409413,-0.26736993,-0.3784732,0.8796433,1.0502732,0.62911695,-1.1447786,-0.6859004,0.03691762,-0.67195565,-0.17285994,-0.5103128,0.35273302,1.4103328,0.096798465,-0.20886792,-0.62318355,0.09816429,1.051773,0.15469141,0.81526333,0.27076477,0.4073645,-0.40094784,0.57792276,-0.0022261143,0.16069116,-0.25330892,0.4691779,-0.24156499,0.9273675,-0.9674279,0.69444454,-0.42725596,0.021380663,1.153445,0.008825086,0.24848786,1.2621772,0.1306703,0.42084616,0.38867182,-0.28042483,0.11337354,0.33561265
Bacteroides_salyersiae,-0.20252909,0.16200316,-0.20037597,-0.035301097,0.589954,-0.123357795,-0.4311543,0.08208371,0.010799423,-0.04457619,-0.13028412,-0.22794904,-0.005595412,0.3915943,-0.2113332,0.19570914,-0.21969539,-0.13873212,0.58002406,-0.35419294,-0.17698538,0.08255862,-0.17785574,0.11677712,0.19388601,-0.45248577,-0.042006165,0.011723086,0.13484976,0.28294435,0.3085748,0.33912766,0.20176029,-0.44532526,-0.20552632,-0.05802191,-0.12562725,0.28573602,0.07387983,0.41084424,-0.47981894,-0.32955378,0.099675864,0.27439776,0.4232894,0.060804028,0.04794524,-0.2082728,0.28948304,-0.25149885,0.15067285,-0.10374528,-0.35036767,0.36068898,-0.27332807,-0.37055957,-0.012729239,0.098372295,0.009036818,0.13968632,0.1459628,0.21734414,0.34799352,0.22169065,0.121802,0.15509865,0.29254234,0.052830208,-0.34842655,-0.03397204,-0.02432366,0.06523017,0.3422519,0.55265915,-0.53227234,0.11027397,0.42310423,0.22051722,0.015067447,-0.22382516,-0.50295275,-0.09702143,-0.20625055,-0.13542444,0.44852412,0.16998455,0.589235,0.3984602,-0.18018857,0.049735032,-0.022261677,-0.20929492,-0.5127075,-0.04106965,-0.017510168,0.23731269,0.19920138,-0.14063448,-0.47229955,0.41787362
Bacteroides_sp_CAG_144,-1.3150228,0.683355,0.5212846,-0.6646849,1.0118315,-0.40859276,0.56573105,-0.00631243,0.5908854,-0.5149245,-0.38354734,0.45039886,0.82091355,-1.4382375,-1.3429332,-0.32593995,-0.048773766,1.2837629,-1.227286,0.804304,-0.7877741,0.057096004,0.1373646,-0.8848858,1.3126258,0.17432055,0.60397685,0.97559786,-0.57800335,0.2071531,-0.005578287,-0.3848722,0.01981698,-0.22679842,0.76051456,0.866088,-1.5069516,0.92059016,0.047947705,-1.3683321,-0.471261,0.23216143,-0.63931704,-0.23499869,-0.26720634,0.09901482,-0.46879578,-0.09712182,-0.15429443,-0.8988705,0.3177074,0.37064344,-0.7331076,0.7092389,-0.6945585,-1.0460625,-0.06707989,2.0192235,0.8148602,0.3014659,1.3449504,-1.5021178,0.42723525,-0.1899043,0.93626225,1.192547,-0.6011657,-0.634572,0.5343171,-1.4938116,0.4027686,-0.26795417,-0.051581793,0.659308,-0.6781286,-0.5553572,-0.29446897,0.86277556,0.0028719604,-0.7882787,-0.03487599,0.47042775,-0.067490265,0.15166086,0.11603433,-0.42951918,0.035295054,0.9984508,-0.78159237,0.24256667,0.55257547,0.45151088,0.053675037,0.30719012,-0.7129805,0.83178383,-0.8725992,-0.52644044,-0.1543572,-1.161787
Bacteroides_sp_CAG_530,0.43071815,0.38819295,-0.6400803,-0.37845737,-0.8945547,0.62503946,0.14010227,0.022962462,0.2425886,0.4462361,0.61028916,0.41745394,1.0531995,-0.032163776,0.56842685,0.032521963,0.5671922,-0.18965212,0.393641,0.1717669,-0.20291531,0.4329569,-0.22478254,-0.5654299,-0.5129874,0.13687614,-1.0811015,-0.8180913,-0.050848067,-0.25506663,-0.8677389,-0.59817487,0.018342614,-1.1882193,-0.99696136,-0.44840795,0.312489,0.5308554,-0.013315976,-1.1151791,0.09614879,-0.13665374,-0.61438066,-0.49199605,-0.77066064,-0.18195729,0.23827858,-0.48879775,-0.48651877,0.15809521,-1.4258145,-0.79734063,0.5256289,0.15372317,0.10872641,-0.59633744,0.30486172,0.8697042,-1.6878817,-0.69558907,0.30407545,-0.95893747,0.39406812,1.3166851,-0.54713684,0.1097351,-0.1001865,0.3080867,0.11812033,-0.3493428,-0.3339491,0.0118353665,-0.9188798,0.3699214,-0.701022,0.76504993,0.30495447,-0.19576156,-0.62761533,0.76618767,-1.2806158,0.563126,-0.605371,-0.82689565,-0.9479935,-0.12340051,0.06794873,1.5985758,0.46237856,-0.5315517,0.8314185,-0.6607468,-0.22329646,-0.39530486,0.20573121,-0.41351357,0.17460606,-0.40787718,0.59588504,-0.14118315
Bacteroides_stercoris,-0.080412656,0.08152123,0.21018861,-0.034109004,0.1295471,-0.72703433,-0.31994122,0.2270262,-0.22486174,0.3477187,-0.11360378,-0.36668783,-0.092607826,-0.1323387,0.046375964,-0.024494804,0.016032424,-0.0068032444,0.0614253,-0.27545133,-0.3094632,-0.19727452,-0.27681226,-0.124868155,0.026366368,0.62950265,0.34053326,0.20113567,-0.08872288,0.21227,0.36484456,0.4164659,-0.24885914,0.031114787,-0.3082684,0.10261479,0.34248576,0.037028212,-0.12890399,0.15614201,-0.070174485,0.23531969,-0.124621734,0.863086,0.067175105,-0.08928093,-0.11464687,0.027350016,-0.26813263,-0.15762646,0.4460209,0.0900982,-0.16194914,0.1527508,0.05765236,-0.06828295,0.27081624,0.34818065,-0.3953966,0.21702455,0.07093598,-0.6426378,-0.21028687,0.3930925,-0.0860876,0.0029835403,0.31928557,0.24867384,-0.10866595,-0.18070792,0.4516859,0.26803872,0.3005102,-0.2521749,0.38820776,0.14165434,-0.39791706,0.06740174,-0.118575215,-0.38539362,-0.12164607,0.005171947,-0.3930714,-0.42521423,-0.22049981,0.6510977,-0.0910082,0.056002256,0.018727021,-0.3779316,-0.26050234,0.40151188,-0.009538926,0.039522856,-0.34287113,0.45300877,-0.6797482,0.10303871,0.09607554,0.081236705
Bacteroides_thetaiotaomicron,-0.4919397,0.08573106,-0.19591951,0.54635096,-0.18607153,0.009495318,-0.6031769,0.7644726,-0.38855445,0.7724086,-0.17832154,0.175282,0.46425363,-0.67258036,0.94239926,0.61422205,0.14484069,0.14703095,-0.22687598,-0.5856199,-0.7034884,-0.10820207,0.5222362,0.2514192,0.7718468,0.28618455,-0.096998215,-0.21595806,-0.3718112,-0.5120636,0.32413036,-0.5076212,0.37515157,-0.3148206,-0.59314066,-0.17870842,0.67654324,-0.104282595,0.1371602,-0.5267234,0.4858986,0.06668349,0.1055248,-0.58373326,-0.8683842,0.5742133,-1.1908594,0.26986265,0.5363998,0.092867315,-0.20007123,-0.34319377,0.22064574,-0.16439247,-0.03717851,0.21604125,-0.17970318,0.53682435,0.66111696,-0.64993966,-0.67740345,0.4505629,0.5841829,-0.20734857,-0.6675165,0.15837222,0.50340724,-0.2544839,-0.9329508,0.17275564,0.5170471,0.90444154,0.39202085,0.8094654,-0.94010013,-0.43955153,1.0392857,-0.57987535,-0.16239676,-0.17011723,0.05912733,-0.54891604,0.36546403,-0.15810975,-0.67458546,0.7111561,0.060674436,0.5156803,-0.09645489,0.30211988,0.40332064,0.06086807,-0.52885944,1.0100962,0.13645309,1.0423998,-0.36851084,-0.62167144,-0.9038421,0.511874
Bacteroides_uniformis,-0.15355176,1.0403365,0.2201612,0.05341589,0.9685106,-0.022393629,-0.10384704,0.74844635,0.4532948,-0.6155329,-0.14177087,0.15502091,-0.5592005,-0.011372682,-0.81764686,-0.04675564,-0.21666726,-0.65449154,-0.28838748,-0.43599775,-0.04214903,0.20044437,-0.6510443,-0.4599824,0.48696,0.74376667,0.43590537,-0.11249076,-0.17659643,0.4014268,0.010759241,0.64682555,0.28075087,-0.0032444,-0.054543912,-0.11013976,0.04275185,-0.008559294,0.46477783,-0.13165787,-0.07477015,0.37282228,0.34565806,0.050077848,-0.69644713,-0.44982558,-0.8170603,0.32388425,-0.1394181,0.25047228,-0.24187197,-0.2398484,0.45843056,-1.0327104,0.24606065,0.011398017,-0.00840807,0.31999737,-0.06425495,0.14845416,0.118270874,-0.12176442,0.15464175,0.106639266,-0.99403006,-0.33195388,-0.075051054,-0.48194388,-0.101322554,0.07354172,0.24530207,1.1713238,0.45323783,-0.5118246,-0.34420082,0.24495533,-0.43857098,0.22047856,0.35009944,-0.09861368,-0.13851407,0.23988353,-0.6343199,0.24815693,0.1267221,0.16242492,0.34568372,-0.3887738,0.5186898,0.74360484,-0.22265545,0.28601205,-0.7479763,-0.28120402,0.686661,0.7940242,-0.030197598,0.4288954,-0.14902931,-0.21840131
Bacteroides_vulgatus,0.35183284,0.2532357,0.46482053,0.39136058,1.5713025,0.045141548,-0.046234846,0.06548345,-1.0550065,0.14559,-0.7380995,0.45388198,-0.0992337,0.40025204,0.107684374,-0.6707791,0.0694828,-0.09494242,-0.85318625,-1.1077379,1.13053,-0.14221041,-0.1806157,0.1489238,0.7246982,0.29999623,-0.7816918,1.0917667,-0.46748397,-0.5695034,0.7943995,-0.29876435,-0.55651146,-0.24657081,-0.0032258332,1.6212978,0.6961548,-0.26140666,-0.05151777,1.0517887,0.02524215,-0.30783367,-0.30874687,0.18332714,-0.1407567,-0.19232698,1.0283513,0.066064335,0.05012068,0.09746364,-0.53839093,0.24827313,1.1420299,0.35343674,0.13509387,0.49354059,0.72844625,0.36892536,0.65329206,0.45295253,-0.09589672,0.52581626,-0.03644246,0.5931394,-0.17725685,-0.2411082,0.53603566,0.13747908,-0.29216233,0.65336454,0.08013262,-0.64612025,0.5746882,1.3073945,-0.11388836,1.4321432,0.12690413,-0.015107781,0.15022296,-0.52616614,0.10408336,0.049504876,0.82169354,0.061339855,0.060414493,0.2923569,-0.75110525,0.23398975,-0.46486875,0.017818928,-0.29873672,0.032357406,0.40055814,-1.0912428,0.29118848,0.5548227,0.36405522,0.48454893,-0.7128347,-0.6284306
Bacteroides_xylanisolvens,-0.48067716,-0.18985984,-0.017970508,0.26934746,0.26977292,0.06796928,-0.510642,-0.09234152,0.020057157,0.4513753,0.017375175,0.60271996,-0.36549723,-0.1940183,0.46505678,0.21819192,0.2655027,-0.16733173,0.078308925,-0.2269551,0.07263567,-0.08250998,0.31480253,0.4080063,0.2302058,0.49693507,0.7286169,0.26419443,-0.14080511,-0.18903325,-0.4901865,0.7034068,-0.42282903,0.877911,-0.23189992,0.32178873,-0.43280536,-0.34827211,-0.016803429,-0.09765777,0.2893235,0.07452524,-0.4735654,-0.37718052,-0.05942343,-0.48833412,0.17996287,-0.0581606,-0.38230717,-0.13138278,0.29855964,-0.75498533,0.23104419,-0.66375434,-0.016674206,-0.2840627,0.6511106,0.12974805,0.31456485,-0.033137202,-0.41472313,0.2444962,-0.076570325,-0.4478053,-0.5995123,0.43575287,0.17217767,-0.08663881,-0.5029181,-0.80266845,0.7569837,0.24579626,0.57693017,0.3628969,-0.7794633,-0.020260185,0.43223092,-0.5069698,0.20597285,-0.44971853,0.21426125,-0.20523505,-0.4827384,0.5200424,0.11678244,0.21061245,0.33430222,0.2462886,0.13915682,-0.1805835,0.2238768,0.33304304,-0.32776487,0.16414511,-0.26117387,0.48110408,0.12790895,0.19147798,-0.34350342,0.65870166
Bacteroides_xylanolyticus,0.084330276,0.7981489,-0.014985748,0.715343,-0.7078219,-0.52169853,-0.86927533,-0.14186414,0.72409904,-0.06790808,-0.6134095,0.1948408,-0.3243838,-0.8172972,-0.33707505,0.9564357,0.8782659,-0.66583157,-0.31807435,0.18616974,0.1374166,-0.6449887,-0.4194641,-0.043666378,-0.62312114,-0.024882108,-0.26986098,0.6654293,0.4429375,0.12371701,0.7041718,0.41026962,-0.6143691,-0.20796087,0.5152993,0.28595468,-0.027929513,-0.30625096,-0.4786032,-0.41093144,-0.615483,0.44452587,-0.18409237,-0.32582983,0.114381835,0.40234488,0.25908804,-0.8394701,0.41738343,-0.5479318,-0.24338236,-0.21282145,-0.45564526,-0.043584213,-0.050664473,-0.63955283,0.33162946,0.3816519,0.675709,-0.21080765,-0.868243,0.8375618,1.0424703,0.42685896,0.72547805,-0.16856752,-0.53665465,0.010716274,0.3560637,0.7886823,0.5638894,-0.87160957,-1.0365964,1.2381371,-0.5527773,0.08037999,0.10356936,-0.006773114,-0.2187206,0.2875594,-0.19972649,-0.4564141,-0.31840822,-0.8524893,-0.4310706,-1.2717042,0.41108721,-0.15825966,0.78697664,0.020196736,-0.013364494,-0.2649659,0.97881764,-0.5053856,0.11900112,-0.24020708,-0.8765511,0.22726624,-0.52028114,-0.2644801
Barnesiella_intestinihominis,0.16626191,-0.3923405,-0.03436002,-0.38609827,0.34207717,-0.016535908,0.014658548,-0.19227111,0.09371804,0.5286553,0.058261514,-0.03892097,-0.040856406,-0.20184326,-0.266181,0.102122836,-0.09721583,-0.35109723,0.012743097,-0.08964529,-0.07022597,0.04078825,-0.19199246,-0.15238112,0.13290891,-0.20885533,-0.04851815,-0.015715688,0.161061,0.2698678,0.23303938,-0.09774604,0.3386798,0.04846137,0.12004302,0.29703912,-0.0866936,-0.5351976,-0.22381684,0.1199141,-0.044029776,0.12930264,0.07564866,0.18780558,-0.21916047,-0.16385198,0.1028571,0.26564443,-0.0063221715,0.30163246,0.41372648,-0.020168677,0.46062034,-0.12718618,0.0021819472,-0.008768424,-0.18234716,-0.029873084,-0.12542425,-0.100647405,0.17942664,0.19389911,0.2986263,0.2425187,-0.3035952,0.4791425,-0.1420927,0.23420738,-0.1486979,0.16206531,0.29764932,0.28879547,0.055942886,-0.23810366,0.05641421,-0.26175207,-0.035586454,0.2001699,-0.0152869485,-0.57570535,-0.10179456,0.42762315,0.12107429,-0.045044824,-0.05115683,0.12203546,0.27342972,0.13852051,-0.14377552,-0.17253251,-0.00756282,0.39566147,-0.3288876,0.42395508,0.07766239,0.037542295,-0.17221794,0.23328292,-0.30738646,-0.044813775
Barnesiella_viscericola,-0.6540706,0.43540215,-0.05264911,-0.6393255,0.8525672,0.10282232,-0.3435089,0.21445179,-0.4732645,0.21544284,0.14580348,0.03777826,-1.1923,0.058036774,1.3926725,-0.42055035,-0.10867959,1.1988605,-0.7403608,-1.1366544,-0.36260283,0.47996527,-0.38481733,1.3921092,0.13190258,0.7444202,-0.37691042,0.05629477,0.043619804,-1.0705901,-0.48437056,-0.037394058,-1.1988847,0.14429832,1.2501953,0.7984043,0.1659842,-0.94254434,-0.20686154,-0.040516526,-0.30503708,-0.13585614,-0.4714704,-0.6166575,0.16415456,-0.050685003,0.45305678,-0.12463841,0.32553244,0.029352546,0.009602666,0.731179,0.42948326,-0.40383446,-0.27823272,0.5475486,-0.27901614,-1.0506281,0.5698861,-1.1009457,-0.50008273,-1.1654155,-0.18620914,0.09167421,0.42695004,0.51754653,-1.1339536,-0.6580546,-0.69209605,-1.0846801,0.7943172,-0.49538574,-0.90239275,0.012580514,-0.75769943,0.33807462,-0.5933983,0.120814666,0.0084561845,-0.8050591,-0.6382359,0.20377049,0.28954002,0.122870386,0.112584144,-0.843352,-0.20046104,0.34171548,-0.951944,0.4563863,-0.15686733,-0.0045011044,-0.047215655,-1.1808292,0.8441161,0.95063555,-0.048557907,-0.5423781,0.1684407,-0.6956996
Bifidobacterium_adolescentis,-0.16660695,0.14001627,0.05672605,0.18449734,-0.32426926,0.25938633,0.09916896,-0.069690295,-0.21549524,0.059057057,0.14891666,-0.007516967,-0.058690175,0.29733807,-0.23183326,-0.2090879,0.00020589866,-0.02955696,-0.049510054,0.0358541,-0.063638024,-0.2561662,-0.24832295,-0.22829366,-0.012720564,-0.30398294,-0.383357,-0.33074147,-0.18608677,0.19032834,-0.1673161,0.25737798,0.13737649,0.018107358,0.037704065,0.57258165,-0.108251,0.044868633,-0.0937056,0.090746954,-0.21301858,-0.2410262,0.14864147,-0.04886651,-0.07906182,0.28436154,-0.6796334,0.5419692,0.15835671,0.54828674,0.2598377,-0.023260485,-0.23570618,0.079655856,0.19043905,0.7023743,-0.33858767,0.15429083,-0.12768848,-0.46857125,0.33242533,-0.17153014,-0.10435783,-0.20509052,-0.08795893,0.26330236,0.2743764,0.009125374,-0.1382176,0.3819406,0.08938864,-0.5338942,-0.17974533,-0.04433143,0.08125906,0.011727065,0.14852712,0.20837486,-0.083455324,-0.048801117,-0.2878324,-0.10689265,0.010427363,-0.02629593,0.121672176,0.037507072,0.06892224,-0.5763212,0.15542528,0.106461145,0.13205689,0.6020986,-0.4740637,-0.10147998,-0.18788436,0.110729486,-0.15937814,-0.14375387,-0.09316904,-0.25017494
Bifidobacterium_angulatum,0.24718699,0.84329104,-1.0496194,0.37400362,-0.018711567,0.3730853,0.45331508,0.44841114,0.24750564,0.40379074,0.6388576,0.19884805,0.11923519,0.8225997,0.02062498,-1.319038,0.5855253,-0.5201038,-0.5127148,-0.064920336,-0.2252059,-0.22533476,0.33250526,0.11326423,0.020097312,-0.6053033,0.5836976,0.68895084,0.16484553,-0.2670264,-0.40260395,0.074596405,-0.37488303,-0.0015705822,0.46877158,0.070527986,-0.11133751,-0.96465874,-0.39641255,-0.11778754,0.6843009,-0.09954697,0.40806532,-0.750615,0.34836867,0.8766055,-1.5058765,-0.25698593,-0.44865644,0.19332495,0.06826067,-0.16145799,-0.056711912,1.0279095,-1.0512468,0.04535052,-1.1339521,-0.3249396,1.5285839,-0.40971318,-0.44691822,0.21814503,-0.56270456,-0.35616,0.65385795,0.042694345,0.81001145,-0.41172755,-0.27504092,-0.6474344,0.9344629,0.42616737,-1.5522635,1.2047259,0.91410124,0.44601378,-0.51175296,0.9782556,-0.47159514,-0.61381096,-0.76200473,-0.101210766,0.4823922,0.37421647,-0.7522654,-0.08217011,-0.42887968,0.3168489,0.64427906,0.8207482,0.5792488,0.21678603,0.041632295,-0.5771234,0.49449575,0.65677845,0.6352671,-0.008452803,0.40478203,0.1995283
